5235 32
the -0.43544307 -0.16047993 -1.1105199 -0.20910822 0.022005731 0.10126087 0.43090528 0.1402646 -0.27134705 0.088817015 0.22882816 -1.010767 -0.2789497 -0.25030482 0.7105297 1.3766427 -0.020045822 -0.3347766 1.6578975 0.3541918 1.1532055 -0.2784383 0.12822697 -0.59319085 -0.7467542 0.5414361 -1.0166212 0.46317837 0.8310124 0.40257284 -0.20276731 -0.53584117
dinosaur -0.04863893 -0.093590036 -0.53008837 0.54126614 0.14333509 -0.21784338 0.09209898 -0.4504828 -0.8851324 0.4189216 0.14201577 -0.30139282 0.0366739 -0.3508253 0.42943355 0.84911716 -0.5459611 1.0093069 0.8831046 -0.47333303 0.973016 -0.30233416 0.2261032 -0.57662106 -0.2020502 0.5107207 -2.1565833 0.5792597 -0.16741465 -0.33778843 0.16939427 -0.8565451
fossil -0.54736036 0.25259498 -0.16092037 -0.19849597 0.3130555 0.28760985 0.34880194 -0.15398985 -0.5959009 -0.3464153 -0.07867489 -0.58277756 0.10612541 -0.07018804 0.6234307 1.0677977 -0.545391 -0.0068787425 1.007573 -0.11033745 0.64348453 -0.41879502 0.2926562 -0.90772164 -0.17883071 0.88350886 -1.6155801 0.43887928 0.7664279 0.2613428 -0.06730396 -0.11897451
year -1.2893014 0.5921306 0.9577696 0.034700017 -0.5079764 0.03410438 0.87123424 -1.946353 -0.8677752 -1.4816701 -1.1818826 0.833651 1.3920505 0.11212494 0.61179984 2.2542963 -2.0576975 1.6461126 2.384855 -1.8860862 0.5489689 -1.1751211 1.6981932 -1.5696677 -1.3402443 1.9153538 -3.8838403 0.15806475 -0.542502 0.5025736 0.27778256 0.5683501
say -0.61532605 -0.6320948 0.74548036 -1.4857516 1.4396112 0.23303165 0.6101939 0.23360123 -0.37704778 0.31204593 0.1876506 -0.66907793 0.66908693 -0.99985605 0.45366672 -0.14894351 -0.07087123 -0.6918468 0.6447702 1.3778795 0.96683604 -0.57461864 -0.9841401 -1.2487937 -0.23535022 1.0606954 -1.1043518 0.14241846 1.2968773 -0.1877101 0.19589022 0.16684143
new -0.77054596 0.13224961 -0.9994244 -0.75454855 0.20711571 0.03625579 0.8090723 0.30696976 0.0046954486 -0.33136258 0.18293732 -1.0589786 0.3318173 -0.15983334 0.7777525 1.7208421 -0.020876078 -1.3580083 1.9352057 0.8591346 0.99383515 -0.13431686 0.08041804 -0.8689582 -1.2792267 0.25646758 -0.74603784 0.24729452 1.3274356 1.0729535 -0.28405735 -0.19274615
like 0.20530954 -0.6686474 -0.6906204 0.48579285 0.37152204 -0.08720231 -0.37780607 -0.09365912 -1.253268 1.5720683 0.5897874 -0.48793828 -0.36396807 -1.0219631 0.5483784 -0.026417596 -0.18372864 1.2960331 0.5342709 -0.16028933 1.5954312 -0.25135428 -0.4582473 -0.61269945 0.11563209 0.63440686 -2.5367105 0.73954654 -0.1763732 -1.178955 0.24349722 -1.4609051
million -1.277723 0.82958645 0.5236519 1.067882 -0.2281204 -0.76221204 1.5189414 -2.251227 -1.0969231 -1.2493625 -1.1678567 0.8055754 1.5225767 0.1591515 1.117409 3.1137407 -2.0684109 1.7727801 2.4939275 -2.133251 0.700324 -0.55879015 1.4884188 -1.605256 -1.1189604 1.7237228 -4.1757517 0.75527304 -0.8521637 0.9862563 0.03669661 0.13082008
specie -0.26558498 0.14344905 -1.3980751 0.9449602 -0.61512786 -0.69873303 0.06366651 -0.33713976 -0.7276403 0.22542946 0.0831513 -0.39650428 0.037736353 -0.12222198 0.32045507 1.6684675 -0.69232124 0.88466126 1.5636051 -0.7651392 1.3634102 0.04983279 0.8716589 -0.31828707 -0.7152608 0.17605469 -2.1934264 0.7632953 -0.34050897 0.31128427 0.08158237 -1.1185602
paleontologist -0.77698034 -0.5427489 0.2508728 -1.9305459 1.3159512 0.46868667 0.9433 0.20619357 0.014414924 -0.24508603 0.3395421 -0.8821004 0.84402347 -0.70559525 0.5969744 0.5938349 -0.2770942 -1.5166668 1.3852227 1.5219201 0.98108965 -0.5058625 -0.6460388 -1.1082642 -0.40655774 0.99554557 -0.7173539 0.13345519 1.9182823 0.6774454 0.11031675 0.37476638
bone -0.1030686 -0.33724365 -1.0789635 0.004692901 0.12436725 -0.03282518 -0.19043408 0.28570825 -0.6981812 0.65823543 0.5198919 -0.7011004 -0.41898763 -0.726577 0.28268543 0.43701994 -0.491812 0.38577303 0.8519391 0.07138875 1.4333762 -0.22381887 -0.0739888 -0.2924097 0.24223317 0.5434771 -1.63307 0.6215758 0.53322536 -0.6071495 0.21306786 -1.0898929
animal 0.028444609 -0.28215173 -0.5143701 0.80235225 0.11356018 -0.24880739 -0.33835244 -0.41996247 -1.1176851 1.132407 0.33016565 -0.33360195 -0.34052604 -0.55439067 0.493631 0.41178223 -0.24420455 1.5351243 0.65806305 -0.58828545 1.2700691 -0.37579757 0.032041017 -0.6287892 -0.18657763 0.55246365 -2.4633176 0.7496844 -0.4650412 -1.0268445 0.15903868 -1.2362517
study -1.1599158 -0.40966403 -0.06779427 -1.5374539 0.6626948 0.27983278 0.94324666 0.9496876 -0.17057501 0.10776511 0.2744191 -1.6316473 -0.1132363 -0.5925445 1.0034028 0.843081 0.3538046 -1.6525178 1.6601071 1.642103 1.3675019 -0.21705292 -0.6582376 -1.3375922 -1.3453114 0.57047796 -0.32043716 0.16611704 2.0361161 0.7245188 -0.59407485 0.032990217
ago -1.1679926 0.8825568 0.49621317 1.1528765 0.06546588 -0.7236224 1.8021815 -2.40618 -1.1714326 -1.5417528 -1.4477428 1.0002269 2.045811 0.0064105447 1.1788127 3.317163 -1.9606777 1.7106164 2.3444202 -2.2548187 0.59088254 -0.26971367 1.4562538 -1.644295 -1.1151357 1.9448583 -4.122797 0.5329574 -0.76418686 1.2147748 -0.052174743 0.37472925
researcher -0.6211451 -0.19481632 -0.35880697 -0.83109134 0.53411394 0.33108696 0.5893269 0.23320514 -0.14851806 -0.04191947 0.33949673 -0.9725897 0.17261247 -0.43249005 0.6870463 0.92069435 0.05461327 -1.0423815 1.38394 0.75593853 1.0016563 -0.32669446 -0.2747778 -0.92946196 -0.62945867 0.598638 -0.73465675 0.3282347 1.314916 0.45779976 -0.16112588 -0.079271086
time -0.4606465 0.009912584 0.53076285 0.3778506 0.38462406 -0.3401015 0.4627402 -1.0114727 -0.82654357 0.103881195 -0.31305966 0.2001525 0.55525106 -0.24759331 0.56335646 0.6960756 -0.8651127 1.3634628 0.9221253 -0.6945878 0.5613987 -0.4413511 0.21250375 -0.9005792 -0.21354817 0.8817079 -2.524071 0.27655333 -0.28600118 -0.4772292 0.25416157 -0.32946047
university -1.3408492 -1.1162922 0.4208011 -3.5960813 2.5640552 0.5559348 1.7862641 0.6886299 0.08588816 -0.24879849 0.2779636 -1.23232 1.560746 -1.4941567 0.605964 0.45482007 -0.71779007 -2.6986127 1.9855264 3.0717933 1.6481049 -0.7779372 -1.4586319 -1.7655293 -0.49381298 1.589348 -0.91638577 -0.11165927 3.650969 0.6547166 0.27800313 0.8051155
know -0.35678288 0.12599826 0.46402448 0.5817884 0.24755374 -0.099736996 0.13962659 -0.60266787 -1.149495 0.6128789 -0.20727782 -0.42529985 -0.07741504 -0.20775984 0.85305405 0.78513336 -0.30843562 1.4400507 0.69330734 -0.7094335 0.527162 -0.48733035 0.1009073 -1.181393 -0.38757208 0.91103804 -2.5856185 0.5682838 -0.21009603 -0.57919925 -0.11885288 -0.58913124
long -0.034728345 -0.5278299 -1.1398827 0.48081303 0.51776636 -0.5724265 0.14958563 -0.5346349 -0.9125981 1.0769525 0.43384853 0.1390964 0.1883923 -0.9256554 -0.009951789 0.57587636 -0.76484334 1.5063715 0.6644147 -0.79270256 1.5347662 -0.6411561 -0.040529814 -0.21518552 0.56838936 0.58787066 -2.305178 0.6274033 -0.20649642 -1.1853286 -0.06837451 -1.7131666
nt 0.83136463 0.2651365 1.332936 1.1552358 1.8853992 2.7702665 -0.8248936 -1.1297426 -1.4256177 2.264438 1.5920414 -1.9144038 -0.803779 -0.9524491 2.3907099 2.237002 3.931401 1.3309867 -0.65498817 -1.6565129 0.6350541 -3.3750196 -1.5459415 -3.8355794 -1.1263697 2.7373927 -0.7976296 2.3117785 0.36953136 -0.58999217 -1.2242066 -1.0007333
live -0.31209296 0.1830115 -0.4964689 0.9414384 -0.26975656 -0.630128 0.41086486 -1.1032897 -0.8923561 0.17103541 -0.3022787 0.23438145 0.4331162 -0.24866138 0.50675654 1.4179453 -1.0670402 1.5642729 1.2840575 -1.1355224 0.9559092 -0.17540741 0.7604711 -0.6022771 -0.5078796 0.6636936 -2.905898 0.5927697 -0.72712356 -0.16232412 0.25394577 -0.8312461
large 0.07858239 -0.29596847 -1.211199 0.9114639 0.0042600078 -0.50066096 -0.19771296 -0.35580006 -1.0346674 1.0540557 0.40902725 -0.27904972 -0.20074224 -0.70430344 0.29496223 0.6340816 -0.71903706 1.6289434 0.8712486 -0.61976755 1.5916157 -0.1789381 0.15244749 -0.2428795 0.18333405 0.43416816 -2.6930332 0.8276819 -0.50265664 -1.0729593 0.34651953 -1.6844949
early -0.41904914 0.19374262 -0.29535893 0.59051067 -0.009304564 -0.38931787 0.5899267 -1.1627127 -0.74623996 -0.16122097 -0.40322468 0.04543301 0.59203917 -0.09893451 0.5933379 1.6909533 -0.96524787 1.0276774 1.4934844 -0.76683736 0.8612412 -0.14704172 0.72216344 -0.72151697 -0.780749 0.6800838 -2.445231 0.46886188 -0.49205288 0.4451942 0.16786249 -0.23044334
but -0.5619158 -0.11877381 0.13585237 -0.16986169 0.5274333 0.08122175 0.35183915 -0.050221883 -0.5188092 0.37512857 0.14789599 -0.89435065 -0.15991342 -0.38592413 0.88785243 0.75948715 0.24211907 0.113118984 1.0061324 0.14285947 0.83241165 -0.49453497 -0.2977599 -1.2595868 -0.5498368 0.674647 -1.3842372 0.39672917 0.72716916 -0.29343596 -0.30349445 -0.43522015
human -0.19444424 -0.15259936 -0.4628049 0.731279 0.040319044 -0.354801 0.06051542 -0.5798816 -0.93423116 0.78574586 -0.0079838075 -0.21176098 0.016938535 -0.124482386 0.44211963 0.9074473 -0.5527698 1.1148536 1.285784 -0.36403412 0.994672 -0.09506685 0.36695555 -0.524113 -0.66048104 0.59347206 -2.2337408 0.6392115 -0.4558341 -0.010694765 0.165926 -0.4413324
look -0.100180216 -0.55586135 0.019195726 0.1686723 0.2602068 -0.0766552 -0.3252264 0.14715537 -1.3025385 1.2556875 0.32898462 -0.7150555 -0.5305401 -0.70961154 0.6175226 -0.24871689 0.26560423 1.0274733 0.3845147 0.07119012 1.1047888 -0.18815473 -0.6358241 -0.8717793 -0.25756076 0.59057647 -2.042364 0.587588 0.011667341 -1.0985099 -0.073928766 -0.9913433
modern 0.2200284 -0.48085752 -1.0380646 0.8767851 0.059160423 -0.3158241 -0.32109618 -0.5638431 -1.3082105 1.5233724 0.52421474 -0.5159375 -0.29985893 -0.7021327 0.35418764 0.52030224 -0.5516783 1.5141841 0.7618675 -0.41792023 1.7323606 0.009654126 0.03002082 -0.30912656 -0.17968011 0.4823341 -2.5949392 0.8899811 -0.5756547 -0.8711648 0.4351021 -1.470761
in -0.6731664 -0.26069072 -0.25119156 -0.8774994 0.71362567 0.020088907 0.74653375 0.20790657 -0.0877909 0.011720156 0.22027907 -0.9826688 0.13425833 -0.4984869 0.7734157 0.82184404 -0.09531685 -0.6909538 1.5227957 0.88221395 1.073349 -0.31069228 -0.32044888 -1.0873616 -0.61550486 0.48404875 -0.9873744 0.17467956 1.2585676 0.12836486 -0.10753879 -0.17045373
bird 0.20710734 -0.4542203 -1.10877 0.9843972 -0.16161186 -0.4746103 -0.4234061 -0.3073234 -1.1785147 1.3831955 0.45730484 -0.2673778 -0.40068498 -0.5751295 0.24490125 0.5513086 -0.50146985 1.5830327 0.91103345 -0.4961364 1.5828959 -0.11700425 0.23455602 -0.3322216 -0.21210739 0.35743487 -2.6943896 0.8568226 -0.652452 -0.68849903 0.34340492 -1.4136001
this -0.41128302 -0.30193168 -0.1883995 -0.09371519 0.3708684 0.038595654 0.22896434 0.1576383 -0.6869859 0.61844707 0.3186798 -1.0063471 -0.35932955 -0.37668714 0.7760468 0.60096675 0.25154266 0.20553997 1.0176705 0.37687805 0.9490671 -0.3584378 -0.3136521 -0.96274513 -0.58973646 0.5686657 -1.4296916 0.35550344 0.5476107 -0.32372794 -0.20396702 -0.57061934
ancient -0.08320058 -0.10386366 -1.1538218 0.6537649 -0.08661602 -0.21476118 -0.025549602 -0.37669528 -0.81717694 0.68635637 0.30213058 -0.4082608 -0.0756704 -0.46390483 0.4273284 1.0213509 -0.54349285 0.8032198 1.1342481 -0.36929476 1.3006723 0.015006471 0.29769918 -0.3902618 -0.30702275 0.41209003 -2.1294389 0.69682074 -0.16807455 -0.15903763 0.25991744 -0.9500542
i -0.6124454 -0.6244163 1.6375326 -0.5315491 1.2435584 0.40680027 0.11485548 0.4662416 -1.0953622 1.1421146 0.42638355 -1.260048 -0.40314743 -0.89011574 1.304589 -0.7361936 1.1687565 0.3108901 0.2711479 0.47312683 0.7987411 -0.663621 -1.4978501 -2.1637177 -0.24373724 0.9312709 -1.7335426 0.33374235 0.82682264 -1.325503 -0.7746464 -0.45298472
tooth 0.26617715 -0.65788287 -1.5449944 0.2835193 0.16275556 -0.09979257 -0.47724375 0.5319958 -0.93976945 1.5641986 0.9905153 -0.89994526 -0.7369703 -1.1012423 0.19702366 0.10685745 -0.089991875 0.62927103 0.68890446 0.3202234 2.0181532 -0.17128338 -0.39515227 -0.1407666 0.27462918 0.440537 -1.7316045 0.8826708 0.3015513 -1.0939986 0.25390005 -1.7134835
museum -0.9917578 -0.80985576 0.63595295 -3.2056742 2.745927 0.47823852 1.4372656 -0.6631162 0.2719612 -0.869243 0.23030426 0.13722622 2.1136768 -0.8111548 0.7026343 0.46056777 -2.010668 -1.9732196 1.9967041 2.4480126 0.7808478 -0.63557184 -0.84854174 -1.1765335 0.485046 1.4689516 -1.4956197 -0.4371823 3.1648266 0.24523242 1.0777515 0.4684112
old -0.84340173 0.8299193 0.13952452 0.9352596 -0.2530139 -0.33112237 0.9876734 -1.1672332 -0.91952395 -1.2166924 -0.8479377 0.15554622 1.0025035 0.06195147 0.9748002 2.4873073 -1.1225183 0.8923338 1.5273721 -1.5807002 0.30031133 -0.013291799 0.9591414 -1.269969 -0.7423024 1.3023127 -2.5741289 0.5925609 -0.2920656 1.1166358 -0.29851288 0.22615051
it -0.24150202 -0.33066875 0.19792223 0.1692616 0.5606934 0.064946145 0.010299636 -0.17576249 -1.0485524 0.89469504 0.25513032 -0.6682693 -0.26406023 -0.6036643 0.72313577 0.2035596 0.002503561 0.9604063 0.61021274 -0.13982525 0.97305423 -0.5156669 -0.40894663 -1.0769527 -0.14897276 0.8414641 -2.0907817 0.52030396 0.21041831 -0.90247023 -0.09244594 -0.78392655
tell -0.834854 -0.58419627 0.34594908 -1.9148177 1.506152 0.39202604 0.91767204 0.5399972 -0.094750345 0.31620744 0.3682885 -1.1871278 0.28143138 -0.8436607 0.84081805 0.36588386 0.183667 -1.5564643 1.3853054 1.9551443 1.1351459 -0.58746684 -1.0263948 -1.3874345 -0.5998536 0.85678613 -0.7771233 -0.0165822 2.2556503 -0.009974931 -0.040968604 0.051235616
they -0.23935544 -0.45121527 0.11914801 0.0684444 0.560066 0.12023233 -0.10605083 -0.083537646 -0.9359103 0.9150479 0.3702397 -0.6978716 -0.33463326 -0.5827919 0.74267036 0.015341869 0.11783213 0.7515625 0.57350683 0.05103284 1.0237726 -0.35633925 -0.50139725 -0.9714229 -0.063641906 0.68368447 -1.8564245 0.5595514 0.27122277 -0.940467 -0.047842767 -0.7722534
scientist -0.59898317 -0.04307378 -0.007229513 -0.41168147 0.42474473 0.13341348 0.5157528 -0.00454125 -0.38020247 -0.05272869 0.09870646 -0.85202336 0.07405614 -0.1805092 0.8882722 1.0163162 0.09106688 -0.4375146 1.2100494 0.31643903 0.6835626 -0.3419489 -0.15475827 -1.0658247 -0.7162019 0.6005307 -1.0595847 0.31120947 0.9576451 0.29727378 -0.3167246 -0.12010701
small 0.028271398 -0.31827393 -1.2000276 0.6575899 0.033991076 -0.3388276 -0.26926047 -0.1496926 -0.92126817 1.0115987 0.47535926 -0.4204264 -0.3612334 -0.7236363 0.23641053 0.6116606 -0.49537197 1.1477357 0.82867306 -0.38455266 1.607614 -0.21497962 0.10033947 -0.26014474 0.13132858 0.3579297 -2.3120651 0.7629736 -0.18193209 -0.9434753 0.31443903 -1.5805981
report -0.9675884 -0.11513282 -0.9492289 -1.3779994 0.69500417 0.18079373 1.3652898 0.1946032 0.30813965 -0.3926653 0.11587393 -0.8316744 0.36440068 -0.45933014 0.8536278 1.849483 -0.22386168 -1.9911171 2.4318666 1.2433767 1.2670139 -0.4150553 -0.013421996 -0.9083234 -1.0231416 0.6384579 -0.5855463 0.014473414 2.1512785 1.0096352 -0.26198444 0.0075584226
group -0.029653432 -0.15970221 -1.1357687 0.8615531 -0.19461909 -0.4465241 -0.0904577 -0.51158357 -0.938435 0.763166 0.22404951 -0.20413582 -0.06989732 -0.5024782 0.34732273 1.0284542 -0.75267714 1.3038795 1.1248835 -0.6837946 1.4501058 -0.09920681 0.45559737 -0.33791518 -0.29796022 0.38367826 -2.5933402 0.76393163 -0.487371 -0.32659218 0.32572183 -1.2017317
preserve -0.28312936 -0.062605165 -0.7095519 0.06805227 0.118319936 0.096961565 -0.059228554 0.1630136 -0.85543376 0.4293186 0.26496986 -0.7449656 -0.30876487 -0.49656743 0.4325547 0.62758404 -0.5080838 0.5401155 0.9088788 -0.11742464 1.0734599 -0.18608768 0.001386028 -0.50294894 0.0895919 0.75514966 -1.7620038 0.55441135 0.50231594 -0.46282408 0.08811897 -0.7878215
suggest -0.36857137 -0.09005272 -0.6611423 0.30160034 -0.021266956 -0.18298773 0.21840066 -0.0025802068 -0.6019539 0.5291064 0.15123983 -0.8357368 -0.35270426 -0.29590732 0.64818066 1.059804 0.088510446 0.32933494 1.170809 -0.11907045 1.0625447 -0.18548954 0.08227491 -0.7528855 -0.7851589 0.41334963 -1.5198138 0.43224904 0.27431762 -0.12580238 -0.23451003 -0.6117416
s -1.7954609 1.0856758 1.8438886 -0.7756622 0.9872577 -0.80641395 -0.6792933 -0.09157821 0.112251565 -0.084732145 -0.61311305 -0.5083443 -0.5982526 -1.1436688 1.0498366 -0.25986537 -0.16186315 -0.461875 0.06806986 -0.9085744 0.71640646 -0.5316767 -0.3927621 -2.925633 0.9300908 -0.76480824 -2.9384544 0.4298994 1.9130793 -2.4901845 0.18473999 -0.9911185
be -1.6117492 -0.78088266 3.1705246 -1.212889 1.2555051 -0.3956407 0.48097187 1.0903991 -2.0162497 1.1162356 -0.9394427 -2.0229049 -1.3216969 -0.08528091 1.4124968 -1.8800895 -0.6212876 0.7755425 -0.11073949 1.4818101 -0.59868354 0.39128968 -1.0971068 -1.5535489 -0.215178 1.2219331 -2.830377 -0.79098284 1.5280923 -1.9915001 -1.0487583 0.27555615
do -1.7142165 -0.91495 3.4624062 -1.0204453 1.248494 -0.7101452 0.5064276 1.0075316 -2.448877 1.3280617 -1.1766818 -1.8797221 -1.4104621 -0.10291718 1.4413435 -2.2699444 -0.98075926 1.4258755 -0.17856063 1.2808577 -0.5364734 0.54883504 -1.112844 -1.5391175 -0.06826611 1.3036053 -3.6843407 -0.8315 1.2096398 -2.537073 -0.9995738 0.07386112
evidence -0.5919932 0.11931893 -0.07646053 0.20761865 -0.0066923443 -0.18161108 0.15206926 -0.1670793 -0.5092179 0.32294166 0.085014984 -0.7005474 -0.22157322 -0.16425371 0.69530356 0.85527825 -0.16939743 0.46689263 1.1077396 -0.22299868 0.78767455 -0.27414298 0.16809602 -1.062576 -0.50347435 0.27995417 -1.697773 0.36703914 0.24532348 -0.21105994 -0.0511288 -0.49611065
come -0.35973716 -0.086489685 -0.036163766 0.09280661 0.33597094 0.0033223538 0.16864456 -0.16570754 -0.691372 0.45339632 0.15210211 -0.565064 -0.05080617 -0.37717575 0.6543956 0.59592915 -0.17621608 0.4869063 0.8609455 -0.06540044 0.8185947 -0.34693643 -0.13507907 -0.9289236 -0.25988057 0.6140681 -1.6749402 0.47194245 0.3469352 -0.3479333 -0.026345912 -0.55025834
author -1.0527916 -0.9336222 0.5278969 -2.464229 1.7995797 0.30745775 1.4657121 0.707899 0.0992119 -0.1993787 0.32512048 -1.4810953 0.91652817 -1.2127248 0.87696564 0.76754963 0.4633891 -2.2760289 1.7509273 2.2005947 1.2065773 -0.6640348 -1.2571905 -1.8099823 -1.2141227 1.3481529 -0.5942945 -0.048962597 2.5416908 0.53185403 -0.11694134 0.6839313
foot 0.28880328 -0.51512444 -1.8651175 0.7446819 0.29591444 -0.4579284 0.11782883 -0.049924154 -0.75950253 1.0875254 0.6269021 -0.1256761 0.08804399 -0.9867806 -0.31302023 0.67600733 -0.9794466 1.5939825 0.7654506 -1.0305309 2.0260906 -0.55547863 -0.19372605 0.20263498 0.7380064 0.8093391 -2.4455867 0.718132 -0.3627553 -1.4114112 0.23209333 -2.157412
dr -0.75348896 -0.48997462 0.481281 -1.0028905 0.7296691 0.05407181 0.7394716 0.18814635 -0.49159765 0.18901469 0.08343275 -0.67239195 0.6150019 -0.8273503 0.3786957 0.3670369 -0.06398597 -0.3711399 0.9236999 0.91407114 1.0408629 -0.38713482 -0.50351983 -0.9836241 -0.6918782 0.8870573 -1.1020546 0.17967136 0.8608797 0.13245502 0.054565508 0.15628459
site -0.6601768 0.061768718 -0.31025386 -0.36920682 0.26659572 0.041725505 0.5123741 -0.28242388 -0.45007777 -0.23742452 -0.14402217 -0.342212 0.37686053 -0.32444757 0.4721373 1.071694 -0.77742773 0.014480268 1.3500725 -0.06071481 0.8247456 -0.27660704 0.30630118 -0.71853495 -0.21935813 0.82515025 -1.6023363 0.3706444 0.6612356 0.18926103 0.106725365 -0.142582
we -0.23247536 -0.47303563 0.6403785 0.093176365 0.7448617 0.2286536 -0.16395862 -0.01883225 -1.1747481 1.1073828 0.4056772 -0.8960457 -0.43151045 -0.67027795 0.9740887 -0.10081822 0.48613414 0.8815899 0.42751554 -0.05222124 0.91740483 -0.5863695 -0.7784997 -1.3651942 -0.120858915 0.83100784 -2.0393655 0.6113408 0.24649347 -1.0746762 -0.32293054 -0.71337825
remain -0.46187145 0.043662183 -0.5949277 0.23379794 0.019769883 -0.10683268 0.24924259 -0.25381973 -0.69827884 0.14896792 0.020514976 -0.4537159 0.05954812 -0.30273426 0.53494704 1.0385927 -0.7125 0.56800574 1.1860667 -0.31310132 0.94315016 -0.23552482 0.3452037 -0.6461731 -0.2860623 0.6365389 -1.980286 0.56595194 0.25609866 -0.03748912 0.08892694 -0.5998569
think -0.48754194 -0.27942494 0.93957925 0.035769634 0.5409908 -0.18905851 0.16138768 0.013091899 -1.2015398 0.89106506 -0.061742585 -0.68286955 -0.20113347 -0.52890605 0.8210313 -0.17359908 0.19079007 1.0389606 0.49466974 -0.030809082 0.6983688 -0.26968583 -0.6736393 -1.4131023 -0.34046924 0.7598024 -2.2729516 0.29857567 0.18315507 -1.0206368 -0.40235257 -0.47778955
life -0.25630724 -0.23233 0.13703121 -0.26643363 0.7547118 -0.11859094 0.52494746 -1.007524 -0.51732963 0.051417004 -0.16076095 0.26911396 0.8030973 -0.18954809 0.39888898 0.6518203 -0.9826884 0.61610085 1.1055974 0.09664263 0.72893935 -0.38348135 -0.05529026 -0.6260714 -0.092773736 0.7595953 -2.0662944 0.18303025 0.2416926 -0.24185766 0.53976995 -0.13531567
team -0.8730169 -0.06104476 -0.79981905 -0.94576824 0.52579176 0.23840395 0.89777064 0.38102305 -0.03162812 -0.16550824 0.23308012 -1.1757765 0.102447934 -0.46276674 0.9095745 1.4800277 0.03278855 -1.4012517 1.8906771 0.88086337 1.2844698 -0.317685 -0.2379906 -1.085815 -1.0091385 0.5791747 -0.7239215 0.3564273 1.748966 0.70687056 -0.37899554 -0.17712773
history -1.0761424 -0.8537389 0.8812526 -2.506571 2.2925825 0.19819807 1.0312856 -1.1110685 0.13547316 -0.9338133 -0.0054426505 0.51810944 2.1586206 -0.5523094 0.6791566 0.3179389 -2.229939 -1.0462457 1.8707618 1.8965849 0.39646804 -0.688996 -0.3219419 -1.1600047 0.32289234 1.3957536 -2.0522888 -0.66075313 2.355921 0.32894814 1.1312488 0.46614593
discover -0.57263505 0.25876552 -0.786918 0.11608283 -0.21801008 -0.2730974 0.49170506 -0.04206187 -0.41920322 -0.3402471 -0.12587577 -0.551079 0.23708765 -0.114247166 0.4877971 1.4902853 -0.80180895 0.16547176 1.5931925 -0.14157997 0.89905566 -0.11974383 0.5324714 -0.60320854 -0.48943818 0.5262494 -1.6594948 0.43864378 0.45363158 0.5700725 -0.010135245 -0.46198964
research -1.1158384 -0.27078557 -0.30123574 -1.5510648 0.8322615 0.29748937 1.288138 0.35649532 0.2596805 -0.5114848 0.06549165 -1.2126466 0.3302741 -0.36420718 1.0394721 1.43202 0.11213645 -1.9432583 2.1519012 1.4742179 1.1496593 -0.37287727 -0.30367514 -1.2709637 -1.3011639 0.61539423 -0.28234202 0.06292092 2.1988087 1.0112115 -0.39455312 0.27065083
include 0.025741324 -0.32642856 -1.4228641 0.49205086 0.050364766 -0.4353263 -0.09376435 -0.21910903 -0.7755496 0.7908337 0.45887294 -0.30684263 -0.057031915 -0.6536506 0.20096137 0.8345244 -0.81169707 0.93249243 1.086546 -0.15230559 1.6407186 -0.10014106 0.21746285 -0.15831849 0.057717685 0.30453357 -2.2772372 0.74875516 -0.07412503 -0.5247301 0.4402906 -1.4348235
skeleton -0.17826459 0.0042294045 -0.88930297 -0.04532629 0.17327954 0.012896149 0.115629844 0.09917647 -0.55813205 0.19295077 0.3020471 -0.5329073 0.02530108 -0.43289012 0.43270296 0.8812377 -0.5082613 0.16884091 1.0252242 -0.023134321 1.1747049 -0.3079054 0.05569537 -0.465781 0.025887802 0.60860634 -1.6272792 0.6151981 0.6406416 -0.15183304 0.10332269 -0.8031932
creature -0.10473648 -0.16621138 -0.78955907 0.65709424 -0.014579052 -0.3196004 -0.0047336314 -0.41303506 -0.94878745 0.6869671 0.18604088 -0.21808001 -0.09200195 -0.47399867 0.37951034 0.8636085 -0.6673432 1.2477615 1.0015159 -0.6565444 1.242805 -0.28117052 0.2945342 -0.50590754 -0.14248769 0.6608965 -2.4284227 0.6350518 -0.26999483 -0.5456943 0.15139173 -1.0735408
different -0.05932052 -0.29272985 -0.70628023 0.51983935 0.1280847 -0.22755922 -0.17508169 -0.017179815 -0.90726835 1.0799652 0.4788691 -0.68724644 -0.37146282 -0.5823939 0.4735029 0.3916699 -0.053969838 0.93856454 0.737902 0.03394317 1.3310133 -0.1942489 -0.17575449 -0.62676394 -0.17333303 0.3238104 -1.9512699 0.6637493 -0.06649395 -0.822033 0.12788978 -1.2203509
size -0.021169383 -0.4891773 -1.3034813 0.5525489 0.18422014 -0.3677208 -0.1791042 0.049573302 -0.9232324 1.3247646 0.68663096 -0.66870284 -0.5067181 -0.8513177 0.268461 0.40359205 -0.39715195 1.0642445 0.8142536 -0.09832609 1.7832154 -0.2872559 -0.18807164 -0.27490607 0.26074952 0.42834795 -2.2227552 0.774766 -0.086076856 -1.2438874 0.21479379 -1.6884358
that -0.98003966 0.09683509 1.5079609 0.15101464 0.79978013 -0.5697828 0.61651003 -0.23791514 -0.07580471 0.5514382 0.81262213 -1.4089552 -0.38217175 0.07326046 1.8254178 0.12208196 0.49045777 1.3025188 1.4905729 0.56503326 0.24835701 -0.7962133 -0.5692317 -2.268567 -0.42657897 -0.30966774 -1.5308576 0.057884853 -0.1148226 -1.3943108 0.007547462 -0.8847331
a -0.56424195 -0.17127803 -0.8517042 -0.31799635 0.17561974 -0.15014839 0.49159712 0.17022553 -0.24459367 0.06487935 0.23266143 -0.8348356 0.022463165 -0.37963507 0.6050329 1.1845684 -0.16885354 -0.45668817 1.5757107 0.40136537 1.2242532 -0.17484728 0.022010809 -0.7355514 -0.739155 0.38962927 -1.2118317 0.37711626 0.89626807 0.28928068 -0.1385721 -0.57519835
today -0.35475516 -0.1756385 -0.446267 -0.010465166 0.24425386 -0.055001248 0.41896066 -0.41698882 -0.3957907 0.33724925 0.06447753 -0.4093215 0.048730988 -0.3303847 0.7330097 0.9974552 -0.24151602 0.17324784 1.278721 0.0510282 1.0814992 -0.23436315 0.13062206 -0.6955635 -0.6549088 0.42507145 -1.4713001 0.3895545 0.3065697 0.034317225 0.021228094 -0.555002
skull -0.092146516 -0.22373247 -1.2481853 0.11337745 0.062018678 -0.122718826 -0.0745472 0.38244674 -0.6578535 0.6917734 0.5517737 -0.7727944 -0.37176463 -0.68068683 0.34598124 0.59642094 -0.33312082 0.24470808 1.0327588 0.14953145 1.5463835 -0.186047 -0.1290178 -0.3431311 0.06537769 0.44635123 -1.6314702 0.69338524 0.51259774 -0.52213925 0.13863479 -1.1836023
cretaceous -0.8500781 0.61066437 -0.116390735 0.73754287 -0.119985245 -0.45211452 1.175254 -1.8306485 -0.775814 -0.9941757 -0.90152454 0.6487142 1.1853046 0.030948548 0.8516084 2.5215871 -1.7579387 1.6230109 2.2284794 -1.6358649 0.76958317 -0.49365148 1.4058216 -0.95381194 -0.8259494 1.3623042 -3.5413973 0.44262877 -0.56459296 0.52855444 0.30407706 -0.045228098
period -0.7153876 0.49194345 0.18259436 0.7888808 -0.00327991 -0.42565486 1.0421517 -1.9754946 -0.873379 -0.8242838 -0.9248075 0.6648297 1.1651684 -0.07723133 0.67229897 2.227304 -1.6576833 1.683425 1.9716369 -1.6190689 0.7871349 -0.6590602 1.2002074 -1.0918628 -0.77462023 1.3770453 -3.564646 0.4453944 -0.60979337 0.28453124 0.29471532 -0.050920952
discovery -0.73279154 -0.042352755 -0.5537958 -0.58834165 0.3239316 0.13437738 0.7137297 0.25630447 -0.24667099 -0.035740227 0.1264259 -1.0053908 0.038260534 -0.3304794 0.8784621 1.2350295 0.013765156 -0.79534733 1.5837461 0.61111224 1.0986602 -0.3119623 -0.10624439 -0.9078449 -0.89523894 0.49047893 -0.85818475 0.27268636 1.2733082 0.5015639 -0.30750355 -0.25039414
science -0.9165676 -0.28616214 0.030901581 -1.5745429 1.0321776 0.3501832 1.1679995 0.07260425 0.16941695 -0.25785965 0.04330021 -0.9071864 0.4040527 -0.45804456 1.1321596 1.1194657 0.08275345 -1.575554 1.9635477 1.3458526 1.0662817 -0.5615846 -0.38559595 -1.2349738 -1.0328538 0.7534409 -0.5005751 0.028970847 2.0477529 0.6288235 -0.2830892 0.22803496
world -0.49742854 0.028347785 0.107371576 -0.05348939 0.34084368 -0.15251437 0.47066852 -0.6872628 -0.5207862 -0.09031216 -0.20534255 -0.016060287 0.48455858 -0.22176984 0.53381634 0.87358624 -0.75893223 0.5874571 1.1970412 -0.23616585 0.6933891 -0.37587586 0.2979288 -0.7817895 -0.2846969 0.7462051 -2.0158002 0.2841336 0.22886622 -0.09356721 0.24075831 -0.21562679
call -0.17691223 -0.23243658 -0.9873041 0.3559644 0.08884933 -0.27137157 0.10422619 -0.31456336 -0.7235239 0.5530295 0.28866434 -0.3404285 0.032747004 -0.5379389 0.4076976 0.87424994 -0.6427995 0.7855985 1.2122232 -0.19238229 1.4130288 -0.20218033 0.21461491 -0.4496866 -0.15811911 0.47393 -2.1319509 0.59743655 0.011313741 -0.37511903 0.27233338 -1.080512
likely -0.22647753 -0.2665693 -0.60305524 0.4257021 0.22492383 -0.27404732 0.07523458 -0.35307345 -0.8634883 0.7854186 0.2803684 -0.35728058 -0.07384407 -0.5626253 0.4091328 0.5946303 -0.4769123 1.0081465 0.9691889 -0.35100254 1.3259383 -0.35379827 0.03511591 -0.55495286 -0.09431769 0.619132 -2.1886683 0.5483182 -0.075997405 -0.76623625 0.13954021 -1.0300012
change -0.47813776 -0.08961938 0.31984308 -0.052047037 0.47884765 -0.13219665 0.40147793 -0.553813 -0.688461 0.2746709 -0.10381097 -0.18674158 0.34323606 -0.26292711 0.68372416 0.569254 -0.4952895 0.56513405 1.0652266 0.056577973 0.6802783 -0.3479708 -0.046383187 -0.9176501 -0.47774154 0.81839746 -1.9324006 0.14195447 0.25711915 -0.30143732 0.12440692 -0.1313418
publish -1.336158 -0.28144544 -1.2044393 -1.5822654 0.80411726 0.67835736 1.6173242 0.4253761 0.41337097 -0.3707116 0.25098908 -2.0121143 -0.2691538 -0.42483842 1.9435422 2.758726 0.69734174 -2.7397275 3.6223764 1.6068679 1.9276428 -0.68261623 -0.14283644 -1.7795389 -2.2821815 0.7605707 -0.5649375 0.24132325 2.9771578 1.3727819 -0.87972265 -0.19956098
there -0.8543572 0.09047855 1.008064 0.15985349 0.62183744 -0.5314354 0.44762006 -0.15622164 -0.15530095 0.5953835 0.7193043 -1.2235563 -0.37895998 -0.117537916 1.5130233 0.19686592 0.28139234 1.1446025 1.4057739 0.3952994 0.56586033 -0.67786276 -0.40075612 -1.9410816 -0.2254721 -0.28375456 -1.7373307 0.18417944 0.006217262 -1.3466169 0.09879468 -0.9939037
journal -1.5647551 -0.19717811 -1.3035613 -1.8970098 0.9317315 0.63945115 1.8648727 0.16183457 0.5001418 -0.41994375 0.14865805 -1.7616398 -0.13022497 -0.5059437 2.0446823 2.7498438 0.55739444 -2.868097 3.7043347 1.7271211 2.1168842 -0.76757544 -0.13130146 -1.8317552 -2.3592172 0.61446846 -0.274355 0.24404007 2.9768827 1.6160549 -0.9067968 0.04645714
way -0.31947485 -0.386272 -0.08602215 -0.034164682 0.51967794 -0.0930222 0.010164934 0.06747577 -0.8342872 0.95715743 0.35125586 -0.76351017 -0.3042023 -0.5997357 0.6404918 0.12968609 -0.05387756 0.5718201 0.7542343 0.2655801 1.130603 -0.26724768 -0.42837363 -0.89002633 -0.13865034 0.4867523 -1.8560114 0.42611027 0.4416599 -0.82713515 -0.011886131 -0.8291261
earth -0.574048 -0.12915225 0.37158495 -0.84236825 0.99988824 -0.00848924 1.0955949 -1.3301578 -0.11610951 -0.69035876 -0.42436618 0.44475055 1.424319 -0.17479846 0.47808653 1.2640723 -1.2634299 -0.04067817 1.5915158 0.28934294 0.56738394 -0.55879754 0.13438949 -0.85634834 -0.37463674 1.0932994 -1.8928655 0.08910728 0.752789 0.4528057 0.59748775 0.41026515
evolution -0.42064595 -0.35399175 -0.1474312 -0.34333092 0.5402897 -0.05420469 0.37857246 -0.2601065 -0.46021378 0.36834064 0.16063331 -0.5355229 0.18187775 -0.38562542 0.6086986 0.64802206 -0.29143426 0.025902404 1.1919496 0.5146239 0.9230801 -0.23239633 -0.16905123 -0.7739054 -0.5879324 0.54478365 -1.4536908 0.16533336 0.57258195 0.013012244 0.08896713 -0.32105562
body 0.11186261 -0.45490444 -1.1775476 0.475801 0.26316917 -0.19673185 -0.25898114 0.054603737 -0.87943846 1.3340833 0.69996005 -0.70150685 -0.5188966 -0.75965905 0.21696578 0.3167877 -0.11095468 0.98631 0.7677467 -0.07888599 1.6718862 -0.33168805 -0.30792582 -0.3407894 0.18355563 0.38212967 -1.9879361 0.69347453 -0.0029564516 -1.2190714 0.21905339 -1.5914043
record -0.5017664 0.11556371 0.16651933 0.05908591 0.16837312 0.1070279 0.39699337 -0.5062648 -0.5792549 -0.075251386 -0.19363047 -0.336534 0.22875951 -0.17026097 0.6609453 1.0698925 -0.59327734 0.64454204 1.1280679 -0.33406633 0.50195795 -0.39533713 0.21289486 -0.96972674 -0.45665416 0.86164385 -1.794086 0.4010544 0.22403018 0.04999327 -0.00900129 -0.192571
plant -0.21276566 -0.20465167 -0.58356404 0.5458964 0.07991061 -0.21835947 -0.0066422313 -0.38777125 -0.9779539 0.65109926 0.1835786 -0.33071408 -0.030948455 -0.4907422 0.5133469 0.66031605 -0.5630206 1.1808217 0.9164468 -0.44878405 1.1730103 -0.22560525 0.10809049 -0.5880508 -0.25533932 0.6742814 -2.389702 0.5522816 -0.1989619 -0.5714295 0.19316363 -0.9770793
evolve -0.16050483 -0.18890792 -0.4381018 0.926709 0.017756224 -0.4895753 0.08270585 -0.73115426 -1.1859121 0.7571643 0.016607545 -0.12030759 0.083005846 -0.39377895 0.43532634 0.823144 -0.78156096 1.6118525 0.94730246 -0.6939333 1.1765014 -0.09750942 0.36655194 -0.5619164 -0.2523037 0.5952526 -2.8232849 0.65049165 -0.6766732 -0.5538577 0.2228683 -0.9731413
lead -1.0525461 -0.45083144 0.27931863 -1.6355858 0.97552073 0.11967043 1.0680772 0.3836703 -0.19823287 -0.09992432 0.07403979 -0.92945 0.7661743 -0.8803461 0.4273638 0.5886821 -0.17943709 -1.2603806 1.3950702 1.4476936 1.3044952 -0.42885178 -0.586765 -1.1712143 -0.8400265 0.9079036 -0.93173236 0.07387584 1.5547112 0.5341602 0.044090904 0.29531184
natural -0.82628316 -0.9172104 0.45181593 -2.8453307 2.6590893 0.38585657 1.6407453 -1.048398 -0.062907286 -0.6439793 -0.20454049 0.032339152 2.003883 -0.5207261 0.76714885 0.84137756 -1.8522418 -1.2995096 2.1938536 2.206131 1.1668732 -0.67547566 -0.8796603 -1.1103585 0.30204695 1.3701688 -2.0498083 0.10276769 2.8562071 0.27593574 1.2119628 0.45302895
rex -0.35515267 -0.22876358 -0.25297758 -0.10769702 0.46817327 -0.055636503 0.20323828 -0.12779614 -0.7045866 0.39382327 0.20726432 -0.5061652 0.007717521 -0.46313655 0.5361284 0.57957476 -0.36308545 0.49697798 0.8880884 -0.010374052 1.0786499 -0.45515704 -0.12696797 -0.77714604 -0.12747256 0.7025622 -1.7831639 0.479708 0.39544198 -0.5446014 0.11399515 -0.709547
rock -0.6043475 0.17599659 -0.096023865 -0.009593148 0.19736248 0.047840282 0.54452354 -0.6051588 -0.6678375 -0.33747074 -0.23267008 -0.12373679 0.47918567 -0.25298122 0.5338149 1.3107535 -0.8978843 0.53222674 1.3740697 -0.47191903 0.7918442 -0.44516727 0.49156606 -0.8720476 -0.29096234 1.0821714 -2.0755386 0.46950892 0.2796274 0.1835173 0.13490883 -0.11943844
extinction -0.5450041 0.41535628 0.41610795 0.54198474 0.1347316 -0.3681626 0.8053765 -1.7176372 -0.7264071 -0.44388416 -0.78539973 0.5689432 0.95197695 0.1210581 0.4433723 1.5964668 -1.2510124 1.5764169 1.6225746 -1.019748 0.41056895 -0.58091444 0.73150694 -0.86918586 -0.55853426 1.0937315 -2.8966346 0.26682448 -0.49734145 -0.08698992 0.2562761 -0.038882565
mammal -0.07035885 -0.23314022 -0.57357717 0.7545169 0.028057639 -0.41938338 -0.08022268 -0.5456597 -1.0146486 0.8546625 0.12936868 -0.110656686 -0.06993125 -0.4179681 0.37279797 0.5739675 -0.71405894 1.4652488 0.88533807 -0.54736274 1.2219461 -0.13133065 0.28038666 -0.43858474 -0.13684402 0.46786794 -2.6240928 0.6783957 -0.5076632 -0.66792715 0.3522008 -1.0845172
extinct -0.13708635 0.017788526 -0.6035462 0.93910426 -0.12674466 -0.48163846 0.0784409 -0.7239452 -0.92986846 0.48711765 0.012604798 -0.043493558 0.20787334 -0.35538045 0.49748617 1.1553597 -0.7234719 1.490541 1.0846729 -0.90803635 1.0869547 -0.21881045 0.38466316 -0.64275765 -0.40748277 0.6139895 -2.7038732 0.7079724 -0.6630087 -0.28368968 0.22027045 -1.0435206
shark 0.0022870433 -0.38842076 -0.774858 0.38982877 0.12990178 -0.26819697 -0.1889315 -0.075417034 -0.8332437 1.0612736 0.46014467 -0.47391218 -0.26360667 -0.6862035 0.34023628 0.42166474 -0.32157847 0.8608505 0.8139584 -0.20035826 1.3781321 -0.1450755 -0.04699202 -0.41167846 -0.101779215 0.45993277 -2.030545 0.68767214 -0.049128488 -0.66076773 0.18061398 -1.1935434
its -0.29480267 -0.37871143 -0.21245989 0.0007890225 0.49952248 -0.08761574 0.06709113 -0.020610332 -0.83812845 0.86458 0.35258433 -0.6946499 -0.19225661 -0.6481883 0.59288245 0.2902001 -0.13749468 0.6282059 0.8230217 0.16541089 1.1825105 -0.34622994 -0.3635705 -0.83557165 -0.14520958 0.6134364 -1.8704197 0.48235938 0.35942298 -0.78546274 0.06968809 -0.8657428
work -0.63853306 -0.2556645 0.40748382 -0.8083783 0.8877782 0.17013851 0.61467314 0.022467064 -0.39545444 0.13632986 0.08816714 -0.67565984 0.25875765 -0.4624761 0.7732682 0.49106395 -0.098340444 -0.39104837 1.055356 0.6924955 0.7601625 -0.41913342 -0.51168394 -1.1833669 -0.44945085 0.7337749 -1.226089 0.15221773 1.1336411 -0.06826519 -0.13848072 -0.045152728
colleague -0.75712675 -0.36172077 -0.24668565 -1.3481582 0.95486534 0.2983574 0.7561254 0.16503853 -0.13191138 -0.071237 0.24560389 -0.884619 0.40841153 -0.672748 0.7267604 0.8584028 -0.21663557 -1.20732 1.5898039 1.1118762 1.218749 -0.4434717 -0.3929627 -1.0672778 -0.57307327 0.78277624 -0.94535404 0.21172655 1.704263 0.3625988 -0.026867865 -0.04317173
paper -1.2033727 -0.30214053 -0.619665 -1.5359893 0.74827546 0.38722852 1.1905026 0.47408175 0.06832335 -0.124769345 0.24709663 -1.4777379 -0.09315406 -0.58752316 1.3694838 1.5721043 0.36636567 -1.9202245 2.4429505 1.437817 1.6737369 -0.5020656 -0.32742307 -1.395336 -1.466015 0.5888192 -0.53668827 0.2193895 2.2631292 0.81163174 -0.600543 -0.1477252
evolutionary -0.30270755 -0.4275482 -0.03885804 -0.66637355 0.9553041 -0.08877875 0.5404984 -0.611517 -0.3557641 0.17217986 0.021407716 -0.09564927 0.6812095 -0.3241048 0.3894901 0.5543744 -0.8237532 0.11330893 1.1068734 0.6216703 0.88185114 -0.23905177 -0.31078708 -0.58989847 -0.036438406 0.51396614 -1.6127782 0.19169518 0.68058926 -0.20004061 0.5469753 -0.25026596
help -0.3330273 -0.44593036 -0.40376785 -0.36873055 0.53150296 -0.014165929 0.12077268 0.098735385 -0.62903214 0.7130767 0.32601735 -0.74151397 -0.14184558 -0.5581987 0.5190487 0.32653078 -0.2360221 0.13781798 1.0041522 0.62485975 1.1662763 -0.28385934 -0.38887388 -0.69272524 -0.2505079 0.5169485 -1.5574527 0.3092965 0.7250202 -0.44924635 0.103265956 -0.65819144
big -0.24398218 -0.3365366 -0.21433596 0.18312916 0.41386124 -0.12870939 -0.050450385 -0.011226253 -0.8418974 0.972818 0.35024095 -0.6608956 -0.3851029 -0.6227493 0.5878891 0.17395487 -0.071464494 0.75193685 0.63651335 0.017241282 1.1669408 -0.3561607 -0.34967604 -0.79962575 -0.01655921 0.45695445 -1.9611778 0.4896372 0.27317426 -0.9896667 0.004818137 -1.0366912
pterosaur -0.17867099 -0.20153618 -0.5884765 0.4601186 0.07580754 -0.3169285 -0.025393175 -0.16308221 -0.8839297 0.7153748 0.23746672 -0.49607083 -0.19048661 -0.46327114 0.45844677 0.6222748 -0.39597034 0.9836992 0.8580802 -0.2740679 1.1541262 -0.18823084 0.06855894 -0.5983488 -0.22381663 0.42639112 -2.148091 0.5460935 -0.09574876 -0.5323742 0.031973068 -0.98221475
and -0.49943343 -0.17823964 0.13689499 -0.1734037 0.5606522 -0.07607035 0.29936817 -0.0919139 -0.598451 0.4782837 0.15217914 -0.6787345 -0.09569259 -0.4686224 0.76389587 0.4673516 -0.115102775 0.33002096 0.99541396 0.18773086 0.9426214 -0.39894396 -0.2950937 -1.1128497 -0.2882323 0.5337519 -1.7215717 0.34505275 0.60841846 -0.568747 -0.027948422 -0.5732737
as -0.67023855 -0.19704865 -0.33503807 -0.7602758 0.6055711 0.13070308 0.6880291 0.10223821 -0.2646949 0.12190926 0.17921203 -0.80043864 0.19116764 -0.5038763 0.77222407 0.9696849 -0.049532358 -0.7107958 1.467533 0.7351014 1.1179693 -0.4051692 -0.28027043 -0.9893556 -0.66002685 0.66558474 -1.0299459 0.25354975 1.2710571 0.2161874 -0.14177649 -0.22787295
giant -0.14220598 -0.24393374 -0.7313984 0.56638515 0.09703162 -0.3738946 -0.042799894 -0.33932748 -0.94185144 0.8028559 0.23163721 -0.287887 -0.0675978 -0.60923475 0.37524444 0.6545412 -0.56637686 1.1969595 0.87337023 -0.5367008 1.3468788 -0.22564036 0.065866955 -0.51708007 -0.00019407384 0.5220273 -2.4415038 0.6698938 -0.18991727 -0.79170805 0.20556268 -1.2346927
similar -0.08064787 -0.32432893 -0.94122577 0.45549592 0.1777702 -0.24343129 -0.08277172 -0.22453985 -0.91002333 0.9902047 0.38546312 -0.45088473 -0.15998456 -0.6458527 0.39732218 0.6193588 -0.4079081 0.8775946 1.0143675 -0.16376755 1.4684712 -0.1329258 0.040341973 -0.48525688 -0.12399422 0.45181832 -2.1645813 0.7210619 -0.040089514 -0.61696786 0.2338564 -1.1774155
ancestor -0.17015368 -0.09021045 -0.5775749 0.788178 -0.07721068 -0.33418113 -0.017574515 -0.68601465 -0.97795755 0.70780814 0.10860823 -0.20635268 0.010380644 -0.33388877 0.44790056 0.9149413 -0.57033855 1.3019807 1.1018583 -0.63842356 1.1092498 -0.20157216 0.4042702 -0.5669593 -0.4638507 0.52288055 -2.4193614 0.694253 -0.5280144 -0.32532915 0.20518112 -0.8486181
jaw 0.075897165 -0.5059868 -1.4058577 0.12096206 0.24670032 -0.1059025 -0.23402996 0.36490053 -0.6713408 1.1509962 0.74850714 -0.8113449 -0.5016694 -0.9478598 0.31087276 0.37557438 -0.18101801 0.3998675 0.8879314 0.2428218 1.7890946 -0.15622707 -0.28095272 -0.24600571 0.105933465 0.42007387 -1.6387516 0.75094455 0.42575872 -0.7493021 0.16746938 -1.4646606
go -0.43287456 0.004315782 0.4067448 0.27793425 0.38023028 -0.15914841 0.22585063 -0.57632816 -0.79434574 0.38525438 -0.024941728 -0.2788263 0.18801273 -0.3663843 0.71332055 0.6995585 -0.26088607 0.9654337 0.7876216 -0.4615288 0.72952634 -0.4378099 -0.00096538983 -1.1266965 -0.30905113 0.66661394 -2.1651745 0.46464008 -0.0006566977 -0.51545256 -0.004411612 -0.580177
north -1.0205498 0.32813403 0.1313018 -0.11025258 0.5736521 -0.1740275 1.139281 -1.4584934 -0.5413978 -0.63915783 -0.83598983 0.4122346 1.4830899 -0.21471085 0.46915567 1.90284 -1.6567512 0.22971499 1.6409051 -0.81930554 0.6769349 -0.3012404 1.2701056 -0.63853073 -0.10659323 0.7976363 -2.5558445 0.52793884 0.2560753 0.4460582 0.6600418 0.27064776
specimen -0.40174845 -0.030179523 -0.51428926 -0.07405217 0.20118563 -0.009973009 0.27848005 -0.06119079 -0.5587013 0.16224295 0.14343403 -0.5303386 0.06732256 -0.38570103 0.5087702 0.8782553 -0.4431419 0.18462133 1.1421754 0.010085717 0.98323345 -0.29851764 0.10377681 -0.6889852 -0.24660283 0.616328 -1.6306323 0.49198204 0.5210092 -0.06242808 0.048491567 -0.54524356
leave -0.3145243 -0.19019373 -0.36772057 0.1256756 0.37475672 -0.09869131 0.12920725 -0.2282714 -0.79719734 0.5572687 0.1788242 -0.50553083 -0.05599455 -0.54731846 0.52777404 0.59555626 -0.37084588 0.6530858 0.93511665 -0.15311192 1.0852413 -0.3218472 -0.06391212 -0.7536326 -0.14417532 0.7013214 -2.0020874 0.5267821 0.27572805 -0.52669615 0.06029053 -0.767116
egg -0.0920043 -0.28181502 -0.6879533 0.3128394 0.13886529 -0.06799382 -0.12582217 0.1537916 -0.92193234 0.91648495 0.4918656 -0.71358556 -0.45645422 -0.56022817 0.44193187 0.43613338 -0.16380274 0.78935164 0.76919216 -0.09833345 1.3392655 -0.23738216 -0.10425525 -0.642475 -0.06195455 0.45162323 -1.9029918 0.6676128 0.17511411 -0.76825726 0.08659254 -1.1163765
predator -0.10924887 -0.39689133 -0.77975166 0.27041724 0.27173215 -0.1905876 -0.008327572 -0.12907834 -0.7579656 0.8824266 0.39469704 -0.4471927 -0.14993928 -0.6845347 0.39105263 0.48266608 -0.33642557 0.77263445 0.9096951 -0.1031454 1.3906046 -0.3014504 -0.080813915 -0.49943238 -0.05334317 0.54510784 -1.9629678 0.5869675 0.13451862 -0.7434143 0.20385256 -1.0847262
accord -0.8232571 -0.29112604 -0.45121923 -1.2275897 0.80533415 0.16571754 0.9534961 0.08144135 0.0901086 -0.31743148 0.062754005 -0.758838 0.44899142 -0.5024456 0.684525 1.1970083 -0.23396029 -1.2890569 1.8209908 1.0289676 1.1104442 -0.41082555 -0.17356956 -0.9643734 -0.82760984 0.7438277 -0.7819682 0.10699717 1.5724307 0.5973802 -0.09363027 0.12278321
tree -0.24467267 -0.400079 -0.4706296 0.26875728 0.3136344 -0.25508034 -0.13842353 -0.3187916 -0.8756349 0.8133562 0.28074595 -0.44012016 -0.07283425 -0.5629148 0.54057485 0.4608074 -0.32276416 0.81499285 0.9129195 -0.08181964 1.215694 -0.29019162 -0.064602524 -0.62568617 -0.2736968 0.46846583 -2.0573695 0.47165653 0.06865828 -0.6040261 0.14346844 -0.9355199
national -1.2469319 -0.538182 -0.07247395 -2.4908812 1.8284546 0.32071853 1.4472506 -0.26198786 0.18658029 -0.59669703 0.1629544 -0.668057 1.3670784 -0.7370182 0.90167934 1.1934986 -1.0300761 -2.1347995 2.4775603 2.035503 1.395526 -0.60121655 -0.44889984 -1.2550812 -0.4841153 1.1756451 -1.1612322 -0.041831702 2.997624 0.6829035 0.3711433 0.34748688
show -0.31944302 -0.12582938 -0.7136945 0.14907108 0.105082534 -0.12369445 0.24536398 -0.08003877 -0.5874856 0.42089486 0.21239482 -0.6027212 -0.08146318 -0.43982983 0.48684883 0.93853074 -0.28295618 0.32603595 1.1869408 -0.05244092 1.1600773 -0.23893026 0.087087214 -0.6373725 -0.41734007 0.5221647 -1.660079 0.4663623 0.3373953 -0.18407652 -0.017422955 -0.6979054
probably -0.30732116 -0.22350833 0.029015116 0.33022523 0.35790002 -0.09546596 -0.012416962 -0.1636764 -1.0227716 0.9242036 0.21213402 -0.658644 -0.2949415 -0.57911354 0.6947596 0.36337113 -0.039572183 0.99950796 0.66903013 -0.2821112 1.0706174 -0.41406646 -0.2720666 -1.0120513 -0.22362988 0.7131792 -2.1949732 0.56417876 0.088872164 -0.91026884 -0.10725155 -0.9101172
prey -0.12829997 -0.56594324 -0.804964 0.09103971 0.45245382 -0.15550339 -0.05713301 0.054258335 -0.8827974 1.1191858 0.5682081 -0.6681329 -0.26889607 -0.89577675 0.39351588 0.2960997 -0.2573779 0.6511078 0.8953766 0.17315231 1.6349833 -0.28348556 -0.36951867 -0.5595079 -0.02169905 0.58635855 -2.0464609 0.66991323 0.34778583 -0.9303999 0.18365678 -1.2550162
find -0.4717415 -0.17496121 -0.2768987 -0.2894628 0.4360827 0.0664384 0.26940814 0.083848946 -0.5758358 0.35442984 0.19339423 -0.7054466 -0.028215192 -0.4674178 0.5908933 0.6373354 -0.2605767 0.07047931 1.096564 0.2715283 1.01082 -0.31853688 -0.15319017 -0.85305303 -0.29239514 0.6112073 -1.558369 0.39197683 0.7369351 -0.25668526 -0.018649617 -0.49950784
place -0.4254331 -0.10005269 -0.008470619 -0.1365006 0.50474906 -0.0107063055 0.37364966 -0.48884034 -0.63316613 0.19327779 0.018507784 -0.2673681 0.27936277 -0.38018194 0.61857855 0.7233459 -0.47614834 0.47534582 1.0548084 -0.054486748 0.8474647 -0.4225325 0.0037141768 -0.8683228 -0.28545573 0.7236083 -1.8226153 0.34977114 0.4310593 -0.23840788 0.12911135 -0.38128135
take -0.49009043 -0.1258756 0.06329597 0.018667411 0.38136956 -0.13084245 0.45570624 -0.43304887 -0.7254098 0.16225721 -0.13467044 -0.27142707 0.2108189 -0.36423835 0.6268974 0.6963642 -0.58387697 0.6223782 1.014339 -0.2161482 0.795662 -0.30183405 0.0014543242 -0.8428998 -0.31029928 0.7831747 -1.9958481 0.3025744 0.28319678 -0.29563028 0.012322732 -0.37713867
mean -0.42137125 -0.048261482 0.21099469 0.27436277 0.41531646 -0.116328776 -0.10084718 -0.19568495 -0.91895753 0.81784195 0.12623638 -0.6536825 -0.37833703 -0.5834188 0.711722 0.34443635 -0.12420207 0.85589 0.5514535 -0.32991868 0.9275136 -0.44384515 -0.20906548 -1.1236799 -0.12750521 0.57941353 -2.177401 0.48478007 0.2764781 -0.9543564 -0.06397088 -0.81387436
reptile -0.0077359234 -0.19954154 -0.95694876 0.6606793 -0.013091073 -0.40904114 -0.0500092 -0.4390554 -0.88549274 0.76955 0.17757529 -0.10419392 -0.015903141 -0.48162508 0.23146778 0.7683968 -0.7449591 1.2856427 0.919079 -0.5216672 1.3046136 -0.1216944 0.303823 -0.28401378 -0.083533525 0.4379954 -2.4293678 0.6836755 -0.44019908 -0.520311 0.35284477 -1.194547
feather -0.108269 -0.18393148 -0.5884144 0.3045944 0.10974899 -0.1655347 -0.025936173 -0.14059758 -0.78392565 0.65246403 0.26339477 -0.50355417 -0.15054907 -0.5044413 0.4434649 0.6531158 -0.27513412 0.7035896 0.8799263 -0.16214012 1.1618441 -0.19603063 0.057385176 -0.6085124 -0.21253487 0.4804594 -1.8985678 0.5586949 0.06819802 -0.3743176 0.11455371 -0.8476452
day -0.32937706 -0.23276141 -0.37856448 0.035705645 0.3981925 -0.10600304 0.242007 -0.3609234 -0.76223433 0.59413934 0.13745077 -0.30600616 0.07784936 -0.48334566 0.5214501 0.6628597 -0.503745 0.5661164 1.1693442 -0.02298532 1.1568156 -0.25748459 0.08001726 -0.6633925 -0.2537169 0.6598137 -2.0193367 0.52928203 0.22184978 -0.3340649 0.16164806 -0.6013487
t -0.43745488 -0.15153407 -0.24366613 -0.12819046 0.37517634 -0.036498614 0.24814983 -0.038936302 -0.6037555 0.38120934 0.15682882 -0.5838712 -0.032010764 -0.4858791 0.53963745 0.621011 -0.26891056 0.28012505 1.0225573 0.08256148 1.0624136 -0.32025486 -0.15549515 -0.82363063 -0.26569545 0.5835004 -1.6693603 0.39660144 0.539919 -0.3650832 -0.017582016 -0.6033698
speciman -0.5470001 -0.021692974 -0.3516013 -0.22815846 0.22632167 -0.01223167 0.43069422 0.043800287 -0.52840483 0.029902242 0.08349823 -0.65532964 0.08136236 -0.4009522 0.5547226 0.8911743 -0.32560486 -0.076588586 1.1550477 0.081951305 0.9849004 -0.31436512 0.003565503 -0.8005084 -0.391588 0.6412706 -1.459191 0.4109637 0.7146897 0.06308313 -0.12749562 -0.40451106
these -0.28386614 -0.21355104 -0.4249975 0.1145842 0.3049708 -0.064644635 0.13348424 -0.1707565 -0.692396 0.5998226 0.24537447 -0.5745074 -0.13416193 -0.49937192 0.5362598 0.6644273 -0.27270386 0.5644514 0.937524 -0.04988579 1.0884122 -0.3306203 -0.064362474 -0.6983486 -0.23640673 0.6009368 -1.8191247 0.50732356 0.3018054 -0.46992627 0.078725606 -0.7950886
age -0.496778 0.17547819 -0.046844907 0.47763968 0.0721958 -0.24773411 0.5114633 -0.94277835 -0.7840651 -0.18608329 -0.38541275 0.07352399 0.48301357 -0.16766773 0.54640967 1.227306 -0.9261484 1.0101469 1.193109 -0.8407599 0.6681689 -0.36007184 0.57981265 -0.7067627 -0.31116384 0.9356527 -2.3067944 0.4849339 -0.22864781 0.0027933114 0.16558306 -0.24916491
land -0.39834622 -0.043717027 -0.26697925 0.110841945 0.35511324 -0.123728506 0.38558874 -0.67912185 -0.6691049 0.25186944 -0.046805616 -0.08381804 0.3996397 -0.3903078 0.4969866 0.97187155 -0.7094113 0.7750483 1.2233349 -0.3661846 1.0154425 -0.42795867 0.21849835 -0.7759393 -0.24067053 0.7526363 -2.2023594 0.45253935 0.11691706 -0.26004165 0.23404436 -0.53982425
shape -0.038784266 -0.5311471 -0.9664875 0.1292105 0.33196867 -0.114207104 -0.21062408 0.24912572 -0.85302 1.2522615 0.6627336 -0.8520225 -0.5373651 -0.8137361 0.4040242 0.24635217 -0.07788105 0.5683777 0.82797784 0.33375996 1.6236578 -0.2546033 -0.3762311 -0.5163404 -0.015373241 0.43027204 -1.8027678 0.6594819 0.3683139 -0.9327462 0.12550317 -1.3188857
cave -0.49082914 -0.064763136 -0.6544904 0.07819967 0.12532525 -0.12586816 0.30922613 -0.3315667 -0.68154585 0.25570184 0.05181722 -0.3791173 0.129582 -0.4593015 0.51172763 1.0417341 -0.7002931 0.44889215 1.3461243 -0.16169034 1.213256 -0.254858 0.3108275 -0.6391336 -0.27687854 0.6778318 -2.0122979 0.51468855 0.37583762 -0.09382715 0.18131988 -0.58562636
water -0.33671343 -0.21662092 -0.23488523 0.09768022 0.45678192 -0.11595708 0.16654442 -0.45849133 -0.74870867 0.57028586 0.15546165 -0.295354 0.09160263 -0.58348185 0.5208585 0.60780245 -0.48892155 0.7718972 0.9474684 -0.23524016 1.1392094 -0.40762776 -0.030879125 -0.7776335 -0.11787143 0.76017004 -2.1312675 0.47468445 0.18096545 -0.66089666 0.17659003 -0.75920635
fish -0.0511843 -0.38991556 -0.92800987 0.3122743 0.15551311 -0.24282578 -0.08633772 -0.13128312 -0.842223 0.9237927 0.4293961 -0.42060143 -0.15720016 -0.732195 0.34571186 0.53510284 -0.49030086 0.87138504 0.96085525 -0.14983232 1.5306095 -0.17436676 -0.06913879 -0.43651077 -0.052101567 0.50210035 -2.188655 0.67012614 0.03554931 -0.71143264 0.26361176 -1.2053121
appear -0.47258285 0.019580899 -0.2868872 0.25305846 0.06003506 -0.09944191 0.4970935 -0.47436532 -0.6228135 0.06076411 -0.11536956 -0.36241153 0.11697031 -0.1932583 0.6866768 1.2797133 -0.45131758 0.47448957 1.3726315 -0.37666273 0.9041634 -0.31018934 0.33144045 -0.7926538 -0.7062717 0.73839587 -1.8834002 0.39371884 0.18120317 0.087258585 -0.12518555 -0.40750635
late -0.7571332 0.372251 -0.06288713 0.22250457 0.12158891 -0.21834587 0.96516025 -1.2136518 -0.5848129 -0.68887097 -0.63127446 0.15170228 0.8507629 -0.17235106 0.7251123 1.9441383 -1.1563569 0.7345432 1.8394285 -0.8527623 0.84414107 -0.46351823 0.85780716 -0.98391056 -0.7370775 1.0196601 -2.545173 0.40136886 0.024478586 0.45499733 0.11102477 -0.034518763
form -0.3383244 -0.24402592 -0.5145617 0.0063515767 0.37930772 -0.13077746 0.19097266 -0.34539786 -0.7072142 0.48157838 0.20374127 -0.34100202 0.14491989 -0.5262313 0.48426676 0.7261215 -0.5808924 0.5214448 1.1541494 0.016237255 1.1838896 -0.29478517 0.0741771 -0.65885127 -0.21293329 0.61976457 -1.9999706 0.50654393 0.31222048 -0.3416045 0.23043555 -0.7217087
tail -0.04945497 -0.5128857 -0.8239164 0.15087861 0.45096985 -0.15099093 -0.07953951 0.15894131 -0.89477426 1.1922592 0.5902152 -0.70745724 -0.3917938 -0.8770693 0.3508051 0.21807423 -0.21859087 0.752689 0.7206156 0.03219912 1.5933701 -0.3440467 -0.40575156 -0.5446778 0.13512181 0.5566147 -1.9320413 0.5874106 0.33988297 -1.0912353 0.07239627 -1.3750732
paleontology -0.7154681 -0.57905185 -0.06855799 -1.7152478 1.3437297 0.44127524 0.87296915 0.1634069 0.08261488 0.003052917 0.2872589 -0.865964 0.45828196 -0.6309231 0.81636673 0.68210775 -0.16816077 -1.4341671 1.610581 1.5702437 1.0936021 -0.45998892 -0.6370625 -1.0672027 -0.42234644 0.66980106 -0.7197027 0.10348641 2.0696092 0.33983406 0.1348646 0.06829335
close -0.2113492 -0.26517805 -0.4273256 0.24420334 0.29386106 -0.16208123 0.13594703 -0.33424467 -0.780924 0.6395479 0.15797295 -0.3596943 0.050028224 -0.48752707 0.5501733 0.622347 -0.45084357 0.77928704 1.0213029 -0.17367642 1.1685787 -0.2047407 0.022817329 -0.64371127 -0.22833903 0.55290043 -2.0824902 0.49467403 0.06460513 -0.41591007 0.10672802 -0.8047171
track -0.36324456 -0.12411012 -0.5267426 0.059698775 0.24644612 -0.12696992 0.21244487 -0.10234449 -0.63098544 0.3732321 0.17236929 -0.49158385 -0.0061288644 -0.45759326 0.46785617 0.7204234 -0.4369226 0.37379318 1.0370927 -0.08708174 1.0608656 -0.22747706 0.013060599 -0.61410576 -0.19624333 0.51722944 -1.7581728 0.46707293 0.38041952 -0.30652338 0.04241255 -0.6973909
great -0.3092487 -0.17210144 -0.108318515 0.036264446 0.46301833 -0.06150148 0.21890119 -0.40466893 -0.7143002 0.54486966 0.152346 -0.4262066 0.0679966 -0.49115357 0.61092955 0.64985514 -0.362425 0.59489346 0.97567713 -0.08371029 1.0421625 -0.35023248 -0.028807094 -0.8692222 -0.25868246 0.6543716 -2.012273 0.44621563 0.29069456 -0.45051867 0.12999828 -0.6551886
one -0.51236117 -0.2761668 -0.4660141 -0.37892333 0.39734513 0.092341006 0.39915153 0.10515366 -0.4560716 0.4141996 0.26067883 -0.82009363 -0.17668843 -0.48542872 0.7351388 0.8031976 -0.007936812 -0.2085292 1.2879099 0.41407633 1.1846352 -0.35599682 -0.19153625 -0.8838855 -0.5824558 0.5422559 -1.2845653 0.38820392 0.83787376 -0.13316637 -0.15456587 -0.57219386
far -0.45363688 -0.04926571 -0.006990123 -0.04611207 0.32871386 -0.08908371 0.31864235 -0.25210837 -0.6143096 0.2339492 -0.008389769 -0.35701084 0.16861808 -0.3991353 0.55307186 0.67206144 -0.40510598 0.47552055 0.9819214 -0.12977065 0.84679526 -0.3403924 0.055939686 -0.8759799 -0.2392054 0.6042461 -1.8815851 0.408702 0.33142805 -0.29368997 0.045331914 -0.4349539
date -0.70787865 0.38710937 0.024620684 0.31158158 -0.06161811 -0.15124142 0.74029845 -0.9687088 -0.59573346 -0.7156385 -0.549307 0.13123673 0.73817605 -0.021413581 0.60809314 1.7443731 -1.055339 0.65814114 1.5278574 -0.9259463 0.54065156 -0.36197692 0.78003174 -0.9033964 -0.5940992 1.0257473 -2.1438935 0.39587048 -0.030963464 0.560083 0.049137246 0.10685445
family -0.14582762 -0.33290568 -0.7724273 0.38089615 0.13710329 -0.3518006 -0.015225494 -0.2472145 -0.87929094 0.7336435 0.2810604 -0.45717308 -0.024118476 -0.5411496 0.48507562 0.7150351 -0.55874676 0.92580605 1.0681702 -0.1987199 1.3889636 -0.1252213 0.05449925 -0.58480585 -0.25188962 0.41136903 -2.1981878 0.5586532 -0.026696308 -0.41831332 0.20286769 -1.0647017
name -0.52987146 -0.05614257 -0.695231 -0.10894115 0.17114352 -0.1948457 0.4672308 -0.11476547 -0.5062827 0.09588792 0.09377751 -0.53172624 0.22871955 -0.3951528 0.5729925 1.1520346 -0.51887083 0.05531533 1.4862489 0.09906684 1.2026964 -0.20499352 0.13825688 -0.7532329 -0.5531648 0.54418194 -1.7367432 0.42416748 0.60182416 0.14890727 0.0248813 -0.59775543
reveal -0.34506154 -0.20206556 -0.7662414 -0.031460658 0.24322285 -0.11959836 0.28854486 -0.12464549 -0.59777975 0.34238768 0.2446107 -0.57883185 0.078955844 -0.4470472 0.51793027 0.94805807 -0.45886806 0.19955757 1.2893332 0.13033257 1.1969192 -0.19738372 0.03706523 -0.5915926 -0.33321866 0.56335455 -1.6925753 0.48209274 0.54604965 -0.10928249 0.13113432 -0.6620975
south -0.92027885 0.23343512 -0.0781291 -0.41467908 0.48032588 -0.10162015 1.0964185 -0.9749863 -0.3375272 -0.6881888 -0.5825464 0.16891249 1.2530956 -0.22250791 0.48464462 1.7054019 -1.312769 -0.1275929 1.7159458 -0.40720806 0.7668711 -0.32954517 0.90008783 -0.7088072 -0.33054337 0.85804754 -2.0221777 0.42421922 0.52385306 0.6264717 0.38518912 0.25121108
see -0.37692904 -0.42234978 0.07495272 -0.18762505 0.56756 -0.092303015 0.07706128 0.13829403 -0.8885964 0.86549336 0.26268443 -0.7758166 -0.2565446 -0.67048156 0.6750184 0.062177073 -0.03554873 0.49320328 0.8121967 0.35930866 1.121131 -0.27390224 -0.523988 -1.0054868 -0.1601602 0.58453226 -1.9432069 0.41764066 0.5678539 -0.85073644 -0.081808895 -0.7762141
feature -0.24670956 -0.32964417 -0.71272075 0.00921931 0.38890138 -0.109963275 0.03023084 -0.019043602 -0.74185604 0.7851779 0.42134014 -0.64316547 -0.17091002 -0.6531772 0.47635964 0.5421653 -0.3503344 0.43649477 1.0488341 0.18999723 1.4194713 -0.2863645 -0.17427154 -0.68206793 -0.15335818 0.47489405 -1.8951545 0.5923878 0.47196975 -0.60569286 0.16300553 -1.00546
people -0.5214944 -0.17604288 0.4539669 -0.11521895 0.6217864 0.005739283 0.2802356 -0.19972292 -0.7543169 0.52180195 0.05889166 -0.5929952 -0.028121237 -0.47839323 0.81261426 0.40959224 -0.04510258 0.49960408 0.85441726 -0.001592531 0.81040853 -0.44254354 -0.32640833 -1.2101337 -0.31063324 0.74801373 -1.8328788 0.38757837 0.4647207 -0.5942791 -0.13496849 -0.43950152
little -0.32306373 -0.258624 -0.10043938 0.014626782 0.5119783 -0.05549903 0.10030422 -0.11536673 -0.826516 0.7242314 0.26300836 -0.5827263 -0.14139068 -0.61413413 0.6076992 0.3458239 -0.1401518 0.61984855 0.7998284 0.024906145 1.1151011 -0.41275677 -0.29550916 -0.93281126 -0.13682157 0.59010446 -1.9242162 0.45737654 0.3658329 -0.7159827 -0.008559343 -0.7991755
understand -0.37294027 -0.26431924 -0.0044612302 -0.29976654 0.56585354 -0.04635828 0.2848625 -0.24939412 -0.5225649 0.44116798 0.10586636 -0.39068282 0.13635388 -0.39013216 0.5530962 0.4088682 -0.2853043 0.20415106 0.96092004 0.41359043 0.87355083 -0.282312 -0.28056788 -0.7802936 -0.35441595 0.4887898 -1.5425044 0.24205585 0.53201526 -0.24784447 0.10768361 -0.3470378
able -0.39441374 -0.26017678 -0.009049186 -0.15241067 0.53242433 0.03638641 0.18430525 0.0044656317 -0.8403864 0.70404464 0.19407913 -0.75964963 -0.20903447 -0.51674306 0.6627668 0.40205103 -0.0796091 0.44224918 0.85387087 0.23290356 0.96849775 -0.3690476 -0.34640384 -0.96982455 -0.2641003 0.7291451 -1.7771263 0.40676057 0.5747099 -0.5936932 -0.096697524 -0.5934724
relative -0.10301167 -0.25647038 -0.8141326 0.5762186 0.02628887 -0.36530855 -0.06553407 -0.40055236 -0.99887216 0.8553797 0.24695721 -0.26148456 -0.07098103 -0.5410527 0.3918447 0.6899902 -0.5247578 1.1603464 0.9855463 -0.4555533 1.3926191 -0.18488169 0.2215197 -0.461172 -0.2136306 0.5026781 -2.3789306 0.71483374 -0.3205582 -0.59072566 0.2744429 -1.1183367
give -0.3015412 -0.29224774 -0.31630543 0.077046394 0.3629534 -0.14397416 0.122379325 -0.18785006 -0.8001788 0.6978915 0.23722364 -0.5363475 -0.0865762 -0.5645374 0.5356803 0.5117891 -0.3349894 0.6162267 0.96219313 0.053947218 1.1660607 -0.28065383 -0.136704 -0.75481814 -0.22700733 0.5821009 -2.011539 0.43610966 0.29217535 -0.5835092 0.10888934 -0.8035271
point -0.48491833 -0.23132077 -0.20850882 -0.30858472 0.54725975 -0.02261698 0.43361735 -0.18069786 -0.64696926 0.3798862 0.15973395 -0.55414504 0.116607614 -0.5429646 0.5922796 0.6964453 -0.38280737 0.18428072 1.1610218 0.24505498 1.0950321 -0.35960615 -0.17649247 -0.8529924 -0.32626978 0.6987017 -1.7262667 0.40809909 0.6746513 -0.29247198 0.05037612 -0.48104241
important -0.4083355 -0.26526383 -0.06820604 -0.28059056 0.6207289 0.06903293 0.29481992 -0.12192891 -0.56968683 0.51030207 0.24538071 -0.6780299 -0.025608322 -0.45603114 0.7079971 0.5808968 -0.06314224 0.14194037 1.050883 0.38218397 0.95681304 -0.43148375 -0.35631165 -0.96293014 -0.37734935 0.59034234 -1.5483834 0.31858096 0.6793153 -0.31306684 -0.045825865 -0.4758577
end -0.57725817 0.2913714 0.090441704 0.4451461 0.17228495 -0.329909 0.79249305 -1.1866444 -0.65605074 -0.3810998 -0.56602925 0.17868875 0.63556194 -0.16293368 0.55923134 1.4571478 -1.0927547 1.0954651 1.4863284 -0.89065874 0.7661669 -0.48633122 0.67719805 -0.8724832 -0.52586234 0.98040694 -2.5965085 0.3261031 -0.1500923 -0.032104697 0.1424744 -0.21348612
make -0.44693646 -0.13328388 -0.1681649 -0.048377503 0.38887262 -0.059376705 0.17850104 -0.16402036 -0.65933204 0.4902461 0.17383024 -0.6112639 -0.10155821 -0.5121503 0.6333388 0.6266786 -0.25888672 0.42418075 0.98522466 -0.028807925 1.0384636 -0.37292317 -0.13416938 -0.9390192 -0.24605578 0.58423024 -1.8713789 0.42777103 0.4510796 -0.537096 0.014830395 -0.65534496
however -0.39753336 -0.13491161 -0.32197246 -0.15122819 0.41011742 0.029786974 0.28745145 -0.08009883 -0.52894443 0.3557307 0.20223092 -0.6082202 -0.019894052 -0.46199548 0.6040917 0.7655247 -0.15101914 0.14182846 1.025126 0.10351009 1.0369115 -0.37520054 -0.12652875 -0.8657676 -0.3702706 0.5760809 -1.4855636 0.44864967 0.6137885 -0.20943448 -0.054370474 -0.5471646
add -0.51580155 -0.31258065 -0.13794415 -0.46190616 0.6278506 -0.03465453 0.28533003 0.13500264 -0.546752 0.5181987 0.2796783 -0.8366041 -0.07932193 -0.6211823 0.6283408 0.47881195 -0.04249592 -0.03759786 1.0243034 0.4892774 1.0978156 -0.37983498 -0.39469922 -0.99940765 -0.34426662 0.529326 -1.5088451 0.32385486 0.84879446 -0.42160547 -0.03850011 -0.5681078
america -1.0290531 0.6085681 0.10889362 -0.019633798 0.26889068 -0.2773137 1.2245668 -1.2465205 -0.4653561 -0.8235552 -0.8308585 0.7326316 1.4976027 -0.19840206 0.46936274 1.7734557 -1.5587678 0.7231863 1.8623205 -1.279932 0.6903159 -0.46162307 1.3170027 -0.8415522 -0.13516289 0.9264075 -2.800438 0.6802024 -0.031400573 0.50612134 0.21525745 0.13379471
vertebrate -0.57402414 -0.45934162 -0.25691813 -1.1008989 0.9370995 0.19693273 0.687872 -0.0035921845 -0.15242082 0.049466696 0.18802898 -0.5614354 0.36729303 -0.5366713 0.59374946 0.6111969 -0.4446553 -0.74144304 1.3990964 1.0696038 1.0212191 -0.33154604 -0.38578704 -0.76597387 -0.4491637 0.6433659 -1.0137421 0.11963049 1.3413672 0.20700571 0.14949724 -0.12334635
thing -0.41207948 -0.2564178 0.4893461 -0.06811815 0.59324145 0.11907584 0.06478205 0.0017074271 -0.8729829 0.7998994 0.19861023 -0.79745376 -0.3192503 -0.5507849 0.83893406 0.15107355 0.24063657 0.5741012 0.57009506 0.06310697 0.8267827 -0.5046899 -0.50768024 -1.238864 -0.27377582 0.69139117 -1.7778031 0.41561738 0.4722627 -0.861414 -0.2243411 -0.6046846
describe -0.70312274 -0.08805518 -0.74913454 -0.6373756 0.309025 0.016138358 0.74978435 0.1807121 -0.13245416 -0.11430759 0.11400363 -0.9109109 0.08787126 -0.352859 0.7932693 1.3907673 -0.120124504 -0.8912564 1.8094532 0.6664058 1.1661521 -0.24627505 0.032315135 -0.8534175 -0.9404999 0.4292649 -0.99369824 0.26670167 1.2830341 0.6178158 -0.24610509 -0.32787055
provide -0.5076942 -0.17861903 -0.49457595 -0.21911342 0.4070642 -0.11459686 0.33118924 -0.118232645 -0.592306 0.36928117 0.18417397 -0.67656773 0.016379278 -0.43601024 0.59758717 0.8491347 -0.3909644 0.117868595 1.3877519 0.3044473 1.1876924 -0.2921347 -0.046613738 -0.824 -0.45745417 0.5499111 -1.7761729 0.3644047 0.6393698 -0.16079639 0.054129887 -0.53462416
structure -0.23529905 -0.35493174 -0.68097097 0.06414503 0.28897327 -0.112523295 0.0067634704 0.18756947 -0.81513757 0.8681591 0.45276347 -0.7861251 -0.3666242 -0.66483563 0.48680282 0.42202678 -0.13499874 0.44728687 0.9224917 0.19755258 1.3343959 -0.22383611 -0.23549181 -0.6606478 -0.23236342 0.4745306 -1.7725832 0.56129926 0.38885462 -0.62814087 0.022594096 -0.9627258
area -0.43483913 -0.10991758 -0.18082154 -0.13622221 0.39676166 -0.07357951 0.29759583 -0.24412553 -0.5840134 0.27877015 0.0896538 -0.42265505 0.15143041 -0.47248694 0.5114812 0.684954 -0.43299013 0.35892877 1.0400984 -0.0034719012 0.99131685 -0.32576907 0.010018288 -0.7987381 -0.19682792 0.6397972 -1.7823145 0.42974722 0.4115098 -0.3018243 0.120865874 -0.4949783
previously -0.4493179 -0.029040666 -0.30053803 0.208501 0.11495061 -0.122285075 0.2850943 -0.23769596 -0.67643404 0.20485939 0.033382438 -0.49149498 0.12011419 -0.29591325 0.59835625 0.98669785 -0.3321753 0.4797872 1.1586232 -0.26081964 0.9354041 -0.25727934 0.14154358 -0.87137693 -0.4711015 0.6223813 -1.8449892 0.5113097 0.20058125 -0.017815894 -0.09153142 -0.5069697
whale -0.22835155 -0.1944434 -0.59689534 0.47302324 0.066414125 -0.29029524 0.012620536 -0.45983097 -0.8268013 0.62454826 0.18827912 -0.26716074 0.02800917 -0.46436325 0.44465375 0.83929247 -0.55669135 0.9347497 1.0882673 -0.41843927 1.2762508 -0.24211572 0.17096138 -0.5681698 -0.27047285 0.5204208 -2.1812048 0.63692564 -0.14035936 -0.3647871 0.20565926 -0.9525124
belong -0.18047965 -0.17646547 -0.9670003 0.49851537 -0.07817283 -0.35101366 -0.043536905 -0.07142013 -0.8285801 0.65726614 0.31434396 -0.5408369 -0.1641484 -0.4684708 0.4135808 0.8781118 -0.49634582 0.7839897 1.0619019 -0.25586915 1.3348354 -0.102994345 0.1862452 -0.47982848 -0.27959836 0.37423956 -2.1179798 0.6566804 -0.008812607 -0.33417755 0.1392596 -1.145399
jurassic -0.56876236 0.20413297 -0.27447715 0.32602188 0.10421049 -0.264674 0.73030806 -1.0490898 -0.668895 -0.41572994 -0.39074865 0.17157869 0.71980274 -0.23001914 0.6167444 1.6521965 -1.1923281 0.936152 1.618266 -0.83953935 0.90412116 -0.34200954 0.7158497 -0.76414585 -0.51963705 0.96577275 -2.617559 0.41458663 -0.10651425 0.25044534 0.249741 -0.26734626
write -0.7174418 -0.2905756 -0.23533666 -1.0198715 0.82410145 0.24668165 0.76044333 0.24219123 -0.2646067 0.18475153 0.21913742 -1.0211756 0.14329304 -0.596073 0.8195956 0.92807037 0.0416041 -0.9400283 1.5561109 0.9835649 1.1928424 -0.45404425 -0.41112417 -1.1471243 -0.7387174 0.7296371 -1.0770937 0.23268859 1.5591805 0.1998812 -0.17268983 -0.20005639
well -0.36760697 -0.22845417 -0.13995983 -0.052257445 0.4295356 -0.026543438 0.11723404 -0.04183801 -0.7529716 0.5895109 0.25193232 -0.6861193 -0.12648234 -0.49645713 0.6613276 0.50734997 -0.15083694 0.40255183 0.91175747 0.15539949 1.0252646 -0.33352876 -0.2226697 -0.8895771 -0.2316905 0.6242022 -1.7918355 0.44908378 0.4647915 -0.48861018 0.00024153071 -0.64190084
scientific -0.8239206 -0.24151194 -0.35708728 -1.053262 0.75389075 0.3306608 0.7834593 0.23779912 -0.10369573 0.07349147 0.24309142 -1.1476463 0.018514212 -0.5171211 1.0729754 1.1564993 0.19777647 -1.1326512 1.7677342 0.9783834 1.2519141 -0.50674295 -0.3509578 -1.2130803 -0.8872036 0.61561894 -0.7996127 0.26742887 1.6867313 0.29424262 -0.28570807 -0.23803872
fossilized -0.30282217 -0.0732081 -0.78434366 0.02652212 0.11735203 -0.023440111 0.15998894 0.060000755 -0.60630316 0.25734553 0.25027433 -0.55830204 -0.08531213 -0.4239711 0.4313016 0.8806165 -0.45081052 0.22387788 1.1228507 -0.006355433 1.1050076 -0.22068064 0.13352574 -0.5652565 -0.22439845 0.549321 -1.6282542 0.53084165 0.48446715 -0.12711844 0.06043651 -0.65811044
sea -0.3284404 -0.0619806 -0.48101947 0.40567037 0.18831046 -0.2960148 0.32993242 -0.808717 -0.8129863 0.3046022 -0.036589034 0.03306453 0.37053478 -0.42824388 0.46407822 1.1076293 -0.83843726 1.0386075 1.2772174 -0.64759666 1.1605357 -0.34136564 0.40384522 -0.67586976 -0.2867516 0.78722227 -2.4615612 0.5544815 -0.14385928 -0.29437307 0.24826695 -0.72989964
use -0.33696598 -0.41630214 -0.42135623 -0.22460242 0.53764874 0.0023577313 0.14617732 0.08993932 -0.7495097 0.7982018 0.37265754 -0.821884 -0.22336721 -0.6705028 0.5824826 0.45506108 -0.1618511 0.2682034 1.0367937 0.37982762 1.3226436 -0.3439517 -0.34768954 -0.83030176 -0.24896729 0.6345718 -1.7563163 0.48646522 0.64394844 -0.5984438 0.02395786 -0.7845484
allow -0.28367648 -0.3765541 -0.66147065 -0.08335847 0.3918398 -0.09237874 0.11235854 0.05762825 -0.71168905 0.77580553 0.38565385 -0.7194944 -0.16028905 -0.642072 0.49912077 0.5087748 -0.26509747 0.3840999 1.0525756 0.27614465 1.371869 -0.27655178 -0.24067597 -0.6535383 -0.20024483 0.5348994 -1.7562473 0.48323974 0.5122811 -0.5532876 0.117805555 -0.8955733
eat -0.07156529 -0.39503863 -0.76773876 0.46623468 0.20020133 -0.28409755 -0.2039508 -0.10304062 -0.8960066 1.0185702 0.4479853 -0.4891394 -0.26485994 -0.7114524 0.37603095 0.32202005 -0.37014684 1.0163695 0.7421288 -0.1476094 1.3750021 -0.1926588 -0.14342701 -0.47655785 -0.0064608203 0.48477453 -2.153249 0.64063096 -0.0774992 -0.8697293 0.21158648 -1.2372272
analysis -0.55855376 -0.15800239 -0.7039861 -0.259945 0.23054817 -0.046754576 0.4025706 0.124997735 -0.44923478 0.2657028 0.23936659 -0.7784256 -0.051415097 -0.40384325 0.6088265 1.0169429 -0.25117928 -0.23832895 1.4343824 0.36172628 1.1875405 -0.16071771 -0.012354668 -0.72037405 -0.59541935 0.4542264 -1.34613 0.4148869 0.8343334 0.12323786 -0.08013019 -0.536126
homo -0.5255004 -0.010073531 -0.2157895 0.51457584 0.027910935 -0.23501341 0.16741666 -0.4144902 -0.9618476 0.67111915 0.073247954 -0.5429856 -0.04047089 -0.25053558 0.47931767 0.98746955 -0.45755735 0.89612025 1.0709075 -0.40255854 1.1127902 -0.1757104 0.2629488 -0.9311384 -0.4918818 0.63417065 -2.3721378 0.5451489 -0.14958356 -0.33200645 0.0653943 -0.6436922
now -0.6347368 -0.1642591 0.011007839 -0.46601135 0.5312198 0.08192579 0.4867124 -0.0009922691 -0.45940727 0.20705707 0.12029102 -0.75710315 0.03188988 -0.40050855 0.7904934 0.7420753 -0.026939508 -0.17381771 1.1865802 0.39009586 0.87120366 -0.39294794 -0.2255902 -1.0663713 -0.5503274 0.6386671 -1.3047954 0.26899737 0.8581951 -0.040511347 -0.21024588 -0.24874319
while -0.39346412 -0.23265392 -0.32596794 -0.19782951 0.47384328 0.027116949 0.277735 -0.109517045 -0.615534 0.5036077 0.2520119 -0.63998175 -0.014779302 -0.5175992 0.6138181 0.6799321 -0.22722726 0.21692905 1.1156365 0.23267159 1.1114246 -0.3701762 -0.17885289 -0.86185074 -0.31751233 0.62070525 -1.6589572 0.447265 0.61462295 -0.3452593 0.05155211 -0.5912203
past -0.55189115 -0.0077726287 0.050549172 -0.20579116 0.42623025 -0.10117802 0.57161427 -0.45628598 -0.46716866 -0.07461784 -0.11579712 -0.22900167 0.43079016 -0.3293817 0.64373106 0.90798724 -0.49372223 0.19350998 1.1570708 0.014613522 0.7503884 -0.27331302 0.03479368 -0.92198306 -0.43028155 0.64998865 -1.6792428 0.25760695 0.45528573 0.065804556 0.032975983 -0.1531878
dna -0.42034778 -0.104928195 -0.48497665 -0.0016943575 0.24329484 -0.0016243104 0.24456516 -0.044803172 -0.66845334 0.4274039 0.18474977 -0.6681571 -0.0682998 -0.35543603 0.61231375 0.8375021 -0.27870822 0.18499944 1.2549577 0.10059359 1.0326145 -0.24378848 0.0063076504 -0.7486858 -0.48362362 0.6197437 -1.5902313 0.49747655 0.49910402 -0.07243449 -0.028133301 -0.4993445
result -0.6181266 -0.150867 -0.53596866 -0.36972535 0.35690454 0.11107302 0.5813904 0.05970497 -0.3526915 0.21801306 0.1799027 -0.8533278 -0.08827402 -0.3940365 0.8080892 1.1333911 0.017249668 -0.43030438 1.519539 0.42556724 1.1978772 -0.37121278 -0.11453267 -0.9211461 -0.77133477 0.54415303 -1.2142886 0.35294798 0.98964226 0.13797583 -0.23785421 -0.44331464
grow -0.1709848 -0.33542475 -0.67493385 0.3526052 0.2969409 -0.26709875 -0.022165166 -0.12270148 -0.86339796 0.9015521 0.38624656 -0.5002349 -0.1329603 -0.6684696 0.3615531 0.49742967 -0.38344324 0.98537064 0.83488953 -0.22618262 1.3630027 -0.35511953 -0.12445371 -0.5640515 -0.02044684 0.59169805 -2.1279666 0.559769 0.02340328 -0.87620366 0.12017723 -1.185093
question -0.50889736 -0.09787428 0.094331935 -0.13040215 0.4762491 -0.0015172935 0.33118746 -0.06528254 -0.6098871 0.32470542 0.1270721 -0.65648496 -0.03896712 -0.40073815 0.73943543 0.56043506 -0.09066569 0.25974816 0.95629674 0.1240194 0.8146131 -0.3941726 -0.24787378 -1.0500079 -0.40004298 0.5899917 -1.6052681 0.2953512 0.5493024 -0.33252922 -0.10167967 -0.40482023
for -0.5064334 -0.14551836 -0.06445479 -0.22935328 0.5065364 -0.009563241 0.49389252 -0.18666282 -0.6025387 0.26019308 0.04037797 -0.5931912 0.14781204 -0.42077497 0.70150244 0.82726187 -0.24590398 0.14848141 1.1339797 0.15858215 0.9211329 -0.33914578 -0.16778494 -0.98556113 -0.47817615 0.747041 -1.6936393 0.34498128 0.6104685 -0.113053896 -0.10445045 -0.35438728
shell -0.2456814 -0.30009243 -0.530193 0.11783776 0.27453113 -0.07867802 0.05659486 -0.06999202 -0.8239795 0.7959885 0.35373682 -0.6411692 -0.21815582 -0.594168 0.5286652 0.54215634 -0.23501714 0.6895985 0.9844781 -0.032814465 1.3345106 -0.34090525 -0.13156328 -0.74546796 -0.20219548 0.5928178 -1.9843338 0.5608846 0.24145815 -0.63317436 0.10929804 -0.9405995
identify -0.4305773 0.03815639 -0.55644023 0.097861096 0.07234416 -0.21979602 0.3697351 -0.23597212 -0.5925966 0.051857196 -0.015357264 -0.41823247 0.21787916 -0.29304713 0.515806 1.1153741 -0.6214443 0.4161331 1.2848779 -0.13684614 0.9748989 -0.20478798 0.2897295 -0.6904232 -0.43102437 0.58209246 -1.8928638 0.4344996 0.29340068 0.07307979 0.056766093 -0.5228583
professor -0.9134961 -0.46368432 0.36340478 -1.5573753 1.101558 0.23354585 0.9487329 0.22117142 -0.1874075 -0.035418615 0.1349989 -0.81875867 0.6673644 -0.78159237 0.5640032 0.5316547 -0.21273512 -1.0830505 1.3489805 1.2867839 1.0697813 -0.5066162 -0.6435384 -1.2092177 -0.626347 0.95111376 -0.99231875 0.06936362 1.6102669 0.32610714 0.015865734 0.2738582
formation -0.58020985 0.1461054 -0.2712567 -0.09292139 0.238839 -0.062360525 0.563459 -0.585695 -0.5698801 -0.29515386 -0.22897504 -0.112587266 0.54686946 -0.35736248 0.49487543 1.2845572 -0.99473786 0.3268223 1.3933874 -0.3746039 0.9376036 -0.32975662 0.48198906 -0.7803536 -0.25828856 0.90202403 -2.0719566 0.44382665 0.3947328 0.15593164 0.20207255 -0.26243764
neck -0.00095464085 -0.50705004 -0.9311348 0.2815892 0.40067866 -0.2418816 -0.022869539 0.10633012 -0.86003655 1.0710093 0.5722092 -0.6042055 -0.22562374 -0.81826323 0.25468448 0.36349443 -0.34610572 0.96507657 0.7519607 -0.17982617 1.6087778 -0.39110014 -0.34281677 -0.44405568 0.16533257 0.59965265 -2.1225157 0.5898739 0.19287102 -1.0616642 0.12253165 -1.5134994
field -0.7491894 -0.34762427 0.23304096 -1.0222428 0.9816949 0.15151702 0.64780295 -0.046720907 -0.36478618 0.07914649 0.10269597 -0.6792557 0.336505 -0.5394458 0.803235 0.5559504 -0.36446127 -0.47722962 1.3519757 0.8591618 0.9450001 -0.43414637 -0.4240213 -1.1764505 -0.3538451 0.74564844 -1.4130108 0.1502704 1.3170328 -0.11325105 0.0674842 -0.1258532
start -0.44238168 -0.21399827 0.18434781 -0.18224491 0.55070144 0.049782444 0.27198106 -0.16919605 -0.6741213 0.46271768 0.121815555 -0.56232464 0.0065545524 -0.46358463 0.73095334 0.49329132 -0.098636255 0.4155669 0.91940004 0.07378429 0.8506267 -0.4692531 -0.29088426 -1.0888807 -0.357846 0.70842767 -1.73568 0.33533153 0.5015234 -0.46128675 -0.095384605 -0.44148523
if -0.4248333 -0.28342494 0.06739547 -0.16290283 0.5987089 -0.051073868 0.15526801 -0.04153123 -0.75057745 0.69428587 0.2701247 -0.69531703 -0.16036442 -0.57736516 0.7282281 0.28179523 -0.11117544 0.45772234 0.85673666 0.21643832 1.0149387 -0.3889248 -0.386843 -1.044474 -0.1804295 0.5936621 -1.8492197 0.4053004 0.53373086 -0.75142664 -0.020164646 -0.71393514
mammoth -0.5394037 0.022954855 -0.31652427 0.14505896 0.19929838 -0.19237924 0.47037473 -0.48803136 -0.66484433 -0.017236209 -0.091231294 -0.22947977 0.3234928 -0.29801542 0.5481197 1.1276798 -0.74135447 0.550389 1.3134621 -0.3289201 0.9272262 -0.29648444 0.2918923 -0.73658234 -0.39062396 0.7664532 -2.051568 0.47466373 0.20709248 -0.025045952 0.09499025 -0.3902056
mass -0.43764898 0.17380665 0.006655088 0.41325915 0.25280994 -0.24456954 0.664454 -1.1346964 -0.587757 -0.07586186 -0.35554212 0.098748975 0.4418757 -0.17658973 0.4767966 1.1930132 -0.8673944 1.0411626 1.3249038 -0.69608927 0.78446245 -0.57143193 0.50035906 -0.8115994 -0.34761924 0.94815797 -2.4468663 0.3206539 -0.11796605 -0.21199603 0.23315613 -0.3172881
example -0.40897727 -0.17621338 -0.1923446 -0.06643797 0.33600566 -0.06689236 0.20647295 -0.19814746 -0.662168 0.42488775 0.11161458 -0.4644416 0.0125718415 -0.45663935 0.5460816 0.5914058 -0.39440057 0.42463773 0.965062 0.018514348 0.9877001 -0.3224972 -0.07797414 -0.7864276 -0.23380809 0.6252591 -1.8114607 0.400828 0.42988575 -0.33182636 0.053344455 -0.5530147
event -0.4933412 0.059470177 0.22569042 0.08177242 0.4234821 -0.16042054 0.62113374 -0.96020204 -0.7031763 -0.025703019 -0.3341873 -0.018709894 0.48727503 -0.19959083 0.4965792 0.99126697 -0.87863654 0.88400596 1.2924813 -0.41099823 0.73180026 -0.49727914 0.31144336 -0.8682267 -0.37495384 0.9551479 -2.3938901 0.26011825 0.121229306 -0.2403129 0.22820339 -0.19044115
represent -0.41976666 -0.051063456 -0.537181 0.13546388 0.101840615 -0.14994617 0.2453764 -0.2188093 -0.6160597 0.25565875 0.10667838 -0.49370933 0.06305859 -0.30263132 0.5096477 0.9945165 -0.4851089 0.43871635 1.2324443 -0.10518137 1.0540572 -0.23968683 0.19595154 -0.687988 -0.4472334 0.5675322 -1.8640049 0.46777156 0.25377494 -0.0660123 0.03732832 -0.6084875
good -0.39889333 -0.2242514 0.10893729 -0.14631115 0.54042333 0.013920053 0.14591129 -0.010282579 -0.7438216 0.6623458 0.25785473 -0.73581 -0.20335361 -0.57129973 0.760245 0.30561668 -0.010935631 0.42631498 0.823599 0.17753027 0.98179257 -0.4059774 -0.3664869 -1.0840908 -0.22806883 0.5555333 -1.7426456 0.43073693 0.55139405 -0.695435 -0.047798213 -0.6621029
footprint -0.33778384 -0.11116046 -0.37076473 0.036660362 0.19756944 -0.056263 0.16607438 -0.051337957 -0.62514603 0.345526 0.1550033 -0.53507084 -0.068273306 -0.36583626 0.5039621 0.68353015 -0.34075776 0.37799576 0.9434998 -0.05184423 0.9263131 -0.292501 0.017389797 -0.65093386 -0.20870432 0.59205014 -1.6270461 0.4121929 0.38171154 -0.29454744 -0.007641367 -0.6168066
what -0.64842933 -0.042161137 0.4885491 -0.083014116 0.5391009 -0.17879993 0.3677744 -0.116416626 -0.34653103 0.45493785 0.44066834 -0.91070384 -0.16110939 -0.29558638 1.0532656 0.39769444 0.12041612 0.5737904 1.1358885 0.26458353 0.7304469 -0.5498237 -0.322376 -1.4281951 -0.34050643 0.23599596 -1.5457582 0.27099803 0.33921045 -0.7818566 -0.035360172 -0.6865687
finding -0.72768545 -0.21925648 -0.62102413 -0.5941221 0.41466856 0.20553808 0.62606585 0.28005978 -0.27396694 0.23427424 0.28070933 -1.1454815 -0.24736825 -0.39170066 0.9740105 1.1732188 0.20449603 -0.7979409 1.6870245 0.6932227 1.2878927 -0.33278346 -0.16691013 -1.0158435 -1.0072998 0.47128728 -0.932584 0.34445077 1.30953 0.30322728 -0.39277232 -0.41124332
high -0.45959184 -0.23572828 -0.3234218 -0.20287324 0.5269548 -0.017652566 0.3108033 -0.15613754 -0.6675371 0.47892562 0.25138342 -0.56565213 0.08216421 -0.59305465 0.5703505 0.69623077 -0.3651983 0.27495366 1.1757724 0.1431514 1.2497013 -0.41978875 -0.14004311 -0.8828701 -0.26667863 0.71555924 -1.8468337 0.43836403 0.6008671 -0.4149436 0.060958907 -0.648737
crocodile -0.09875326 -0.26284632 -0.65904176 0.44954357 0.16526839 -0.30227688 -0.06345933 -0.29684475 -0.80178463 0.82875717 0.2635541 -0.2895166 -0.10424044 -0.5248361 0.3737138 0.52094203 -0.4852512 0.9698184 0.8667985 -0.33025447 1.2517183 -0.16201381 0.06621266 -0.44320512 -0.0890118 0.44715568 -2.110692 0.6268884 -0.14267111 -0.6390032 0.24240108 -1.0185354
begin -0.6118652 0.038512915 -0.053674184 -0.12730198 0.36514178 -0.091235444 0.62325436 -0.5291804 -0.50124985 -0.10714048 -0.14237875 -0.2695422 0.43126157 -0.3319799 0.6340076 1.0823163 -0.55691373 0.2747448 1.3395426 -0.15092957 0.82845086 -0.36597914 0.15193321 -0.9292802 -0.51647526 0.7705241 -1.8240093 0.32621074 0.40747043 0.0955457 0.02092039 -0.20819004
when -0.45409974 -0.27473482 -0.022770973 -0.4439557 0.60441965 0.049819533 0.34105244 0.03673787 -0.51634556 0.42082784 0.18916975 -0.68609893 0.03372246 -0.52852005 0.6496783 0.4588026 -0.08106346 -0.033431873 0.97131 0.40781143 0.9793563 -0.35359812 -0.37329838 -0.9609156 -0.32241893 0.6228096 -1.4344578 0.3272743 0.7767525 -0.2964601 -0.074413426 -0.4068695
open -0.5056256 -0.2928803 -0.35700592 -0.5248057 0.64742225 0.069584906 0.46680412 -0.09453523 -0.42458135 0.27827927 0.20686482 -0.5788329 0.14527068 -0.51961565 0.64138764 0.7346659 -0.31480095 -0.17571987 1.3441459 0.48677573 1.1773716 -0.3781565 -0.22723544 -0.8260157 -0.34315634 0.6470196 -1.5106152 0.31215408 0.96935356 -0.15314402 0.08217776 -0.46118087
adult -0.21497476 -0.26273984 -0.664767 0.15870845 0.30150867 -0.05749583 0.02480878 -0.0076205605 -0.7845461 0.79252994 0.39057553 -0.6544753 -0.2094292 -0.6307199 0.46254423 0.60271823 -0.23218623 0.6122234 0.9176893 -0.042656552 1.3519982 -0.3675667 -0.19435985 -0.66679376 -0.097707994 0.6096504 -1.8350885 0.61484075 0.30237368 -0.64482963 0.07852898 -0.99999183
explain -0.5723501 -0.30962348 -0.21180095 -0.532511 0.7208328 0.027381232 0.45001605 0.016864836 -0.5860322 0.46648327 0.24675027 -0.7722465 0.079652764 -0.67469484 0.68504095 0.6660085 -0.23354223 -0.10781811 1.2691578 0.5579879 1.2484701 -0.3835742 -0.34384826 -1.0133516 -0.40091887 0.72311074 -1.7056757 0.3601673 0.9736697 -0.30130044 0.017511632 -0.48777145
m -0.27327687 -0.38076672 -0.1748689 -0.028634544 0.53508544 -0.18390352 0.14445673 0.15881614 -0.7671599 0.9212827 0.33539882 -0.6256891 -0.18186498 -0.7010673 0.461227 0.081744984 -0.034000028 0.64963293 0.64835984 0.007041214 1.1461525 -0.37643278 -0.52374816 -0.8239024 0.05195892 0.5880311 -1.7976921 0.4129 0.34381083 -1.0052868 -0.21107277 -1.0307169
color -0.27572733 -0.30056837 -0.2728474 -0.08579314 0.46373606 0.013997557 0.06598352 0.077433795 -0.7392607 0.7613895 0.38769 -0.73144495 -0.24085265 -0.57944185 0.58963954 0.3143489 -0.055848505 0.36717433 0.81008667 0.27043867 1.1034498 -0.33153403 -0.32978052 -0.82239705 -0.18628086 0.5303144 -1.6673666 0.43347418 0.47951752 -0.63693374 0.05079681 -0.7600729
indicate -0.32109138 -0.16641173 -0.68567723 0.16030814 0.15498278 -0.15574266 0.18460469 -0.15589505 -0.6599589 0.46381068 0.2081373 -0.5615324 -0.059924882 -0.44789872 0.5164366 0.8659541 -0.36454058 0.46934626 1.1491692 -0.09414355 1.1951137 -0.2492102 0.08646594 -0.63584083 -0.36680105 0.527197 -1.814838 0.46995538 0.28850532 -0.29308096 0.057436682 -0.79746747
d -0.5104664 -0.29156643 0.09439343 -0.43958703 0.62220055 -0.0214177 0.24635993 0.13507688 -0.67810315 0.545473 0.19981211 -0.75018275 -0.103449546 -0.5898705 0.66585827 0.24740256 -0.13792686 0.09815794 0.9335472 0.40221545 1.0003244 -0.30074057 -0.41085178 -0.9996166 -0.23276298 0.6228069 -1.6699755 0.3143653 0.824947 -0.59711206 -0.085330136 -0.50093734
complete -0.33430207 -0.08859982 -0.5722717 -0.04190242 0.17321709 -0.09807728 0.21817708 0.02050366 -0.5538234 0.24679616 0.17894231 -0.5189591 0.012513612 -0.42379117 0.4454754 0.76727253 -0.4816059 0.25301114 1.0806093 0.021148324 1.0685523 -0.23252715 0.029432056 -0.58032876 -0.15632588 0.548334 -1.5868032 0.48245943 0.45484376 -0.23454154 0.07839796 -0.67563325
later -0.51809853 0.09366854 -0.05722705 0.2055654 0.2875786 -0.1623088 0.59362924 -0.73052096 -0.63225925 -0.1433582 -0.23277831 -0.081030704 0.5122262 -0.29914746 0.6176817 1.2597679 -0.7088903 0.5932997 1.256757 -0.4828604 0.8121 -0.29572916 0.32478043 -0.91392076 -0.42006782 0.8065528 -2.0759957 0.40917438 0.11821847 0.098676264 0.048228275 -0.2835563
head -0.23605652 -0.40883788 -0.68663526 -0.018115183 0.43422857 -0.12972996 0.043198608 0.06710619 -0.73053825 0.86172235 0.4290661 -0.6151378 -0.19612668 -0.7379654 0.40342948 0.3962718 -0.3035476 0.46102855 0.89842206 0.17617112 1.391603 -0.30465463 -0.26957354 -0.5963775 -0.010000433 0.5133274 -1.833411 0.5236095 0.42800367 -0.7368182 0.11160639 -1.0613558
he -0.70011556 -0.20624153 0.28841442 -0.41464475 0.73314804 -0.1033341 0.44388467 0.0138218915 -0.41145712 0.4562982 0.4687707 -0.9901253 -0.07568368 -0.47867364 1.0391839 0.40693182 0.0035787828 0.23627692 1.3200223 0.57638687 0.99619764 -0.5421711 -0.45369244 -1.3866171 -0.3421631 0.3970545 -1.591385 0.28999692 0.7183467 -0.63520974 -0.003329156 -0.63084394
nature -0.7827276 -0.282914 -0.39628693 -1.0507668 0.6677037 0.29846042 0.8719607 0.12738083 0.021937503 -0.113626726 0.08708459 -0.94463503 0.06558675 -0.33336928 0.9849819 1.1730164 0.043277472 -1.1341217 1.8010507 0.9742565 1.0925765 -0.39770564 -0.21486473 -1.0003135 -0.95509934 0.54690844 -0.65836704 0.18169549 1.5817883 0.56854415 -0.2595391 -0.061367314
believe -0.47527787 -0.17971978 -0.2709198 -0.1750202 0.33629802 -0.119696565 0.34161523 0.022753153 -0.6940697 0.4637269 0.12777151 -0.681475 -0.03369785 -0.515118 0.5680195 0.6792014 -0.20532803 0.24873964 1.0595756 0.20160034 1.091325 -0.27378523 -0.16269363 -0.88056415 -0.44546983 0.59063977 -1.6854275 0.4101413 0.5746598 -0.2742062 -0.11095692 -0.56308204
need -0.40319422 -0.34841678 0.13488553 -0.25160688 0.63136536 0.07128415 0.111651815 0.13234924 -0.7915413 0.8363119 0.29936478 -0.8980055 -0.2934465 -0.56246394 0.7394438 0.21234596 0.082100034 0.3298555 0.7524575 0.3851322 0.95986706 -0.3820908 -0.51743704 -1.0221055 -0.25963312 0.6603032 -1.6475868 0.35724965 0.66839814 -0.71612084 -0.14629555 -0.6360581
case -0.5385069 -0.08835644 -0.015296604 -0.2561996 0.4675097 -0.059500314 0.23052041 0.010261936 -0.4401559 0.37800577 0.21364999 -0.68651515 -0.09343649 -0.53329945 0.688733 0.5299449 -0.069589205 0.049719386 1.0047082 0.19897929 1.0223666 -0.34175816 -0.24225804 -1.0797766 -0.29745767 0.35145897 -1.4910791 0.36457476 0.70036936 -0.43824506 -0.006591333 -0.58992445
africa -0.6828997 0.23279373 -0.08778639 0.117659956 0.17546038 -0.19337067 0.68352556 -0.83346343 -0.5252506 -0.23270305 -0.3535281 0.11184091 0.7298307 -0.20758516 0.48334458 1.3434438 -0.96762335 0.5332074 1.4344856 -0.6014104 0.79846054 -0.32622328 0.6945801 -0.7537886 -0.37878805 0.7508071 -2.135845 0.44984144 0.086502545 0.22372802 0.18161215 -0.09761954
get -0.42449954 -0.31765205 0.20311986 -0.21265024 0.61423284 0.040413175 0.18100718 -0.0054291664 -0.78322935 0.66780853 0.23187497 -0.7055334 -0.1423424 -0.5580482 0.7482288 0.24070784 -0.028853022 0.40555254 0.83791345 0.24750975 0.9731548 -0.4214532 -0.4093825 -1.0584767 -0.20291863 0.64002764 -1.7908739 0.38879207 0.5586472 -0.69889647 -0.05752144 -0.5951988
marine -0.16393985 -0.1718179 -0.614543 0.3757658 0.16643405 -0.23408425 0.07000932 -0.50613487 -0.74451274 0.55492336 0.13303708 -0.17779249 0.1156922 -0.4389792 0.3679217 0.7510284 -0.5979766 0.988818 0.9401296 -0.362638 1.0800484 -0.24789965 0.14113314 -0.49208057 -0.17283832 0.5433175 -2.1728873 0.5635918 -0.14902927 -0.4000629 0.2774075 -0.82194024
prehistoric -0.3115294 -0.12496203 -0.5499705 0.15390459 0.23371457 -0.17628092 0.21214367 -0.3066957 -0.6295413 0.41944027 0.15347034 -0.35785642 0.10857954 -0.44665036 0.44968528 0.80358213 -0.5322216 0.559099 1.051394 -0.15205388 1.0864669 -0.22590506 0.07160031 -0.6020865 -0.19655691 0.545905 -1.9047172 0.4786106 0.21082203 -0.30022478 0.15752172 -0.74726284
collection -0.594142 -0.31306314 0.025526896 -1.0185006 0.93805945 0.12837912 0.5793603 -0.17745858 -0.21562971 -0.09441158 0.08237566 -0.42598936 0.55049396 -0.45797825 0.60374093 0.5865176 -0.5745612 -0.4799691 1.2540749 0.7889876 0.8530379 -0.39131743 -0.30456764 -0.90843445 -0.13235345 0.69244224 -1.3164731 0.19349119 1.3006133 0.070269965 0.25633797 -0.13860695
american -0.69013405 -0.16071004 -0.13077064 -0.81614524 0.74780893 0.0517365 0.80853397 -0.36527386 -0.2155254 -0.23577802 -0.08718981 -0.19081573 0.73507696 -0.38578987 0.5366686 0.93494254 -0.80944 -0.3454102 1.4851872 0.44408283 0.8672293 -0.353798 0.10167337 -0.77279586 -0.27727154 0.7336083 -1.5172529 0.2526725 0.9998673 0.26261377 0.21437712 -0.050741382
fact -0.52174544 -0.07563597 -0.08186054 -0.22176853 0.3644494 -0.032567956 0.27785078 -0.041366577 -0.54330164 0.31853542 0.1464968 -0.6559581 -0.06674492 -0.48456326 0.65332097 0.67360634 -0.17437929 0.12308502 1.0704033 0.13514072 1.0141218 -0.25162622 -0.122570045 -0.97473943 -0.39879772 0.5022674 -1.5878615 0.3611998 0.6421314 -0.28863406 -0.115234226 -0.54887205
type -0.2889149 -0.21452032 -0.3881248 0.18984963 0.28669468 -0.11952732 0.017331164 -0.06176687 -0.78037876 0.7103746 0.25812432 -0.5932071 -0.19007069 -0.57663053 0.50298613 0.47271296 -0.2480718 0.61492205 0.8036388 -0.08485388 1.1430603 -0.24000798 -0.094009615 -0.73254836 -0.15688938 0.48856175 -1.8908573 0.54331267 0.24066874 -0.60605395 0.065134116 -0.85114366
eye -0.31241542 -0.26521334 -0.43533453 -0.055067882 0.43883872 -0.091388084 0.12321603 0.0036624575 -0.6966295 0.7115398 0.39270973 -0.7170234 -0.19816165 -0.64307564 0.59129864 0.467029 -0.18242422 0.40989372 1.0088631 0.16148512 1.2926904 -0.35580218 -0.27092636 -0.7967902 -0.16614822 0.522896 -1.8028595 0.4979283 0.5103677 -0.6432386 0.034669615 -0.9055584
sciences -1.0653616 -0.5356693 0.27531284 -2.2153757 1.6672881 0.32826042 1.2230524 -0.07224849 0.09579691 -0.3864089 0.14660463 -0.63877827 1.1063854 -0.7087951 0.7544538 0.7238987 -0.76026505 -1.742608 1.8539382 1.8458027 1.0824194 -0.5846382 -0.60386664 -1.2624184 -0.41916278 1.0755984 -1.1536744 -0.11583443 2.4239073 0.4470137 0.2846477 0.3466527
kind -0.32207063 -0.2789282 -0.10898014 -0.032023586 0.46291345 -0.014423434 0.013451838 0.092993334 -0.8522972 0.8253419 0.32387263 -0.78401643 -0.27611613 -0.6205113 0.6458039 0.28008315 0.0015292524 0.49009153 0.7254587 0.13696048 1.0916957 -0.32854298 -0.39007294 -0.94909424 -0.19600801 0.5951544 -1.8169546 0.47157982 0.4700648 -0.7395855 -0.051600274 -0.8088775
environment -0.40162426 -0.25239903 -0.18492585 -0.27107066 0.526679 -0.020890225 0.28954664 -0.16077362 -0.6101215 0.4515955 0.17666374 -0.45143038 0.107490346 -0.5283142 0.48983568 0.49716476 -0.3544625 0.24483618 0.99787235 0.24976616 1.0134218 -0.33428544 -0.16291101 -0.72550875 -0.22085893 0.6601652 -1.6968292 0.3267204 0.55751675 -0.36974192 0.13392669 -0.4814975
bear -0.3459537 -0.20507954 -0.49298495 0.0971423 0.328504 -0.13044119 0.15178706 -0.22653072 -0.71238124 0.53168726 0.16144653 -0.45620152 -0.016369483 -0.50615424 0.47499442 0.71435726 -0.46950847 0.56784326 1.0454532 -0.08311557 1.1342642 -0.27255535 0.026797816 -0.6566687 -0.09836642 0.5629234 -1.8807024 0.511381 0.32647967 -0.46625802 0.12261845 -0.8004546
ocean -0.4571807 -0.023916556 -0.22760803 0.14431256 0.3017908 -0.1993695 0.43605012 -0.75890785 -0.64292943 0.082302935 -0.13713732 -0.01098474 0.47215942 -0.37155718 0.5247697 1.033685 -0.83648324 0.72371393 1.2739547 -0.45651037 1.0017699 -0.391978 0.29578218 -0.78752947 -0.31477395 0.8209776 -2.25635 0.42579526 0.07818331 -0.19610381 0.2339029 -0.46081945
region -0.5719654 -0.08275024 -0.17832962 -0.18042837 0.42539775 -0.09965413 0.49909243 -0.37605137 -0.5746538 0.1356719 0.0041343505 -0.36253282 0.30961972 -0.43280128 0.622722 0.9646914 -0.59638953 0.31881213 1.3375208 -0.02520254 1.0221623 -0.3613242 0.094552405 -0.88157773 -0.35077214 0.74118805 -1.9370157 0.407592 0.5035003 -0.12618656 0.12225336 -0.41382822
story -0.46306393 -0.21628952 0.015345844 -0.40865076 0.6029076 0.06361092 0.36228532 -0.10346367 -0.4912261 0.32047778 0.17885378 -0.61962557 0.109049775 -0.45551094 0.68937093 0.59671986 -0.14644104 -0.03022608 1.0132037 0.4058889 0.8791377 -0.39398554 -0.28124642 -0.9460141 -0.39877528 0.58767956 -1.3867759 0.294834 0.7724204 -0.22170496 -0.021216318 -0.36155662
ve -0.32671043 -0.24243692 0.7600766 0.08009157 0.5056369 -0.07156871 0.033708055 0.20750791 -1.2208152 1.0175973 0.11193491 -0.7707236 -0.431999 -0.545329 0.87080944 -0.22283724 0.30281055 0.87878615 0.40540582 0.010985767 0.7515988 -0.27525002 -0.65893847 -1.2528985 -0.24485005 0.76178014 -2.0270753 0.38062638 0.21353313 -1.0679908 -0.39199257 -0.5683668
near -0.44846708 -0.0993955 -0.42441013 -0.068505876 0.36203006 -0.093092926 0.36232713 -0.36919641 -0.6517541 0.21736676 0.06615555 -0.30192304 0.23962799 -0.500676 0.50247735 0.8907714 -0.69373184 0.43857265 1.2334248 -0.13688366 1.1189741 -0.3356707 0.16689754 -0.7124048 -0.19272284 0.7341084 -2.0271297 0.46322247 0.42608547 -0.25566885 0.17428938 -0.576162
impact -0.47369853 -0.045482118 -0.11823211 -0.0094950665 0.37552404 -0.07379399 0.447798 -0.56426316 -0.5828868 0.08489456 -0.03363728 -0.2518479 0.36437416 -0.34671572 0.56367534 0.971034 -0.5476854 0.43643847 1.2368138 -0.13986765 0.885333 -0.40988764 0.14907297 -0.8171553 -0.3934708 0.81355035 -1.8748909 0.3587061 0.29792517 -0.12373833 0.12377329 -0.28303713
turn -0.47512713 -0.27189535 -0.118402526 -0.19087487 0.5283492 -0.03398022 0.282917 -0.09602947 -0.7479316 0.5080967 0.165678 -0.6016572 0.016067524 -0.53531533 0.6567715 0.5509432 -0.3173321 0.33392927 1.0680474 0.21183492 1.0560187 -0.3259478 -0.22736932 -0.92409605 -0.29122102 0.7034994 -1.8727056 0.37818408 0.59965867 -0.4130344 0.012387713 -0.5738383
base -0.3257701 -0.269045 -0.51733196 -0.10346059 0.33053812 -0.05688025 0.12613328 0.07727311 -0.5686987 0.5758217 0.30850255 -0.71112114 -0.15933143 -0.5666639 0.4957012 0.55283356 -0.16233887 0.2117801 0.96086305 0.20598869 1.1944945 -0.28847098 -0.19301076 -0.70116043 -0.22482161 0.47274178 -1.5358156 0.42973322 0.5366196 -0.43955258 0.0061604492 -0.75367546
lot -0.33739075 -0.2194007 0.0909691 -0.08594184 0.5037485 -0.04961105 0.029458905 0.06585155 -0.6648218 0.73029006 0.2980452 -0.7343205 -0.27304623 -0.5515016 0.6876196 0.19837712 0.08022425 0.42342305 0.68793535 0.15558484 0.95713353 -0.37083903 -0.4134843 -1.0302277 -0.18652569 0.43837395 -1.6218752 0.39532915 0.4574742 -0.7584278 -0.052993663 -0.7520789
note -0.6396365 -0.30663225 -0.22352123 -0.6046125 0.6766973 0.04840576 0.429129 0.1869992 -0.5661993 0.4362543 0.24548636 -0.9029384 -0.040045258 -0.6460809 0.72308874 0.6108205 -0.1277997 -0.23714842 1.2474786 0.6123542 1.1958008 -0.39087296 -0.3901309 -1.0211778 -0.4442325 0.6682293 -1.5110731 0.33837482 1.0853373 -0.28445947 -0.11196522 -0.5192406
forest -0.45061252 -0.07599207 -0.18231638 -0.018138824 0.34484136 -0.1226346 0.35217032 -0.4698801 -0.6046029 0.17448403 -0.018189793 -0.20784539 0.3022461 -0.39557743 0.5067277 0.81525546 -0.5742623 0.48529962 1.1353171 -0.21058351 0.93182117 -0.32856128 0.17222947 -0.71975446 -0.2820965 0.6798452 -1.8618512 0.3956352 0.29650202 -0.19717173 0.16201861 -0.4335218
lineage -0.46086025 -0.10553663 -0.27106166 0.15022087 0.26376238 -0.25657335 0.34087956 -0.5139986 -0.7391435 0.31105846 0.0053559537 -0.26271483 0.22960728 -0.41139752 0.50681746 0.92361885 -0.6615552 0.67528546 1.218963 -0.2098953 1.0825325 -0.25100964 0.19519335 -0.74488854 -0.3514147 0.6351067 -2.1894684 0.4815162 0.13705797 -0.2217159 0.1817429 -0.5773357
walk -0.23977667 -0.2545964 -0.32632917 0.09575071 0.3547457 -0.14457314 0.1604197 -0.19508223 -0.6702919 0.6013087 0.1994016 -0.33389318 0.0012419929 -0.5264183 0.44052893 0.48154154 -0.3557078 0.60228467 0.8107665 -0.11579385 1.0693158 -0.29566142 -0.14873706 -0.60080063 -0.115434974 0.549049 -1.7920647 0.4142392 0.20708726 -0.58894813 0.07643504 -0.7804813
compare -0.3187944 -0.27063546 -0.56937027 -0.043296766 0.33408636 -0.06086979 0.1797668 -0.0048730625 -0.636862 0.61461794 0.30897272 -0.6632932 -0.12399498 -0.53057617 0.5372946 0.6467939 -0.2498436 0.28178614 1.0795872 0.20466372 1.2248315 -0.23973866 -0.13960023 -0.7045766 -0.25931564 0.55655926 -1.6618837 0.49962544 0.5194161 -0.3401773 0.034675043 -0.7437663
insect -0.24983276 -0.28151962 -0.44294694 0.13053766 0.33979425 -0.07854774 0.035726618 -0.087988436 -0.7945241 0.77761006 0.3159489 -0.57041913 -0.17316286 -0.5907461 0.5155675 0.44483837 -0.20443076 0.6592571 0.8689067 0.020203685 1.1765703 -0.27554756 -0.1675238 -0.72473073 -0.20210697 0.56844324 -1.9064391 0.5327594 0.20620374 -0.5744396 0.070748314 -0.84888315
set -0.36506322 -0.28835994 -0.5457846 -0.20087712 0.42186263 -0.05764167 0.21696477 0.017824043 -0.62018216 0.53840864 0.29359084 -0.6641933 -0.091798164 -0.5692476 0.5358931 0.6235513 -0.29264385 0.1564052 1.080252 0.23332113 1.2526909 -0.2908123 -0.18981038 -0.7013886 -0.26533052 0.5808479 -1.6378667 0.45861626 0.6341777 -0.37301305 0.013285227 -0.7316284
hand -0.3381373 -0.39957476 -0.33312532 -0.2474631 0.5841871 0.004113122 0.20313577 0.085305125 -0.66704375 0.7308901 0.35803306 -0.75214255 -0.13728088 -0.6450555 0.5703514 0.3695374 -0.15746236 0.24464004 0.95008665 0.33328462 1.2163508 -0.35607013 -0.37423635 -0.7840833 -0.18058191 0.5822902 -1.6318927 0.4290198 0.66113317 -0.60290545 -0.0011424546 -0.7411316
tiny -0.26426974 -0.24649121 -0.66845995 0.038957782 0.23846944 -0.104895584 0.07916019 0.048603673 -0.6748585 0.61240023 0.2961367 -0.6057438 -0.17069644 -0.556818 0.46284866 0.6124701 -0.33460107 0.38083988 0.9601361 0.050332636 1.24 -0.19622523 -0.104903154 -0.5962745 -0.15860887 0.4657198 -1.7298645 0.5043111 0.42104018 -0.42104182 0.054547958 -0.8866916
present -0.44362694 -0.08054431 -0.25141627 -0.06895872 0.3100085 -0.09082409 0.38931915 -0.35956797 -0.5442579 0.18882997 0.025130104 -0.3454214 0.21309301 -0.38528666 0.53452766 0.8741833 -0.5039681 0.29753146 1.148922 -0.032052856 0.97155523 -0.29166234 0.13475104 -0.72732955 -0.38253778 0.59630275 -1.7082419 0.3701494 0.34700242 -0.10690397 0.10893361 -0.4211053
common -0.25295842 -0.18088666 -0.4437244 0.33752182 0.22867279 -0.21284206 0.05812481 -0.2708778 -0.8327764 0.7456561 0.18643521 -0.46885183 -0.10632897 -0.5135666 0.4983569 0.597117 -0.42044488 0.80000496 0.9490529 -0.15708646 1.1786199 -0.19646066 0.041304667 -0.69398427 -0.2422709 0.5062218 -2.1250932 0.5857133 0.010970929 -0.5004399 0.14374314 -0.826315
idea -0.40231407 -0.22735348 -0.27188098 -0.18052876 0.45899507 -0.003127297 0.2801256 -0.040589415 -0.5754508 0.49755657 0.26444507 -0.6646139 -0.0688842 -0.49976292 0.6166828 0.6111989 -0.14413922 0.16548401 1.0946951 0.27903134 1.1256368 -0.35610273 -0.22091734 -0.86092603 -0.3837545 0.5202374 -1.6189691 0.39866543 0.6172581 -0.34471464 -0.018227039 -0.6027814
short -0.21339154 -0.29680717 -0.64487046 0.10049307 0.32756996 -0.12209928 0.103429615 -0.12610878 -0.7068417 0.70383346 0.3371833 -0.47542295 -0.10716051 -0.62001514 0.3905973 0.54548526 -0.34956732 0.6098048 0.9496099 -0.041759774 1.2486557 -0.3109099 -0.093496405 -0.5496761 -0.07014998 0.5341551 -1.788187 0.49358574 0.27644908 -0.611107 0.1286813 -0.9255645
mark -0.35347137 -0.29815346 -0.428865 -0.16337833 0.4030376 -0.048576117 0.2342852 -0.0079434905 -0.65340257 0.54646486 0.23746903 -0.6153737 -0.055890374 -0.6124003 0.5144743 0.5723676 -0.34757182 0.29112077 1.0257778 0.20905937 1.2094446 -0.3095872 -0.17756315 -0.7039269 -0.23670451 0.6369466 -1.7841226 0.46340185 0.5385726 -0.38793045 0.075679846 -0.6975671
climate -0.5319862 -0.048266582 0.1755639 -0.09781245 0.43718687 -0.07874733 0.497673 -0.58505297 -0.6515678 0.14536254 -0.0813395 -0.15671301 0.40669832 -0.27148667 0.59729105 0.8272508 -0.5065135 0.48234656 1.2622849 -0.13747467 0.7922186 -0.4093737 0.12483239 -0.85420465 -0.4576619 0.7582961 -1.9129362 0.22025046 0.2467919 -0.18776871 0.09915267 -0.1972643
to -0.42479685 -0.255944 -0.15537667 -0.26345593 0.52168345 -0.00013636921 0.24188259 -0.031179251 -0.602647 0.48992905 0.19688705 -0.6392613 0.0045579537 -0.5417587 0.57224506 0.49021822 -0.2246894 0.1848167 0.96114504 0.26201162 1.0247687 -0.33631998 -0.271439 -0.8676963 -0.24693996 0.5923523 -1.5982106 0.39647597 0.6547898 -0.39562544 0.0053565316 -0.5520748
young -0.41173482 -0.038622253 -0.2756712 0.08762452 0.21714762 -0.06565254 0.26774532 -0.2748 -0.637271 0.27521878 0.09686908 -0.43972003 0.07331789 -0.38555652 0.5751784 0.84296656 -0.38404876 0.44606167 1.0603375 -0.16524678 0.96403986 -0.3347956 0.07214058 -0.81635106 -0.34074694 0.6650523 -1.7734971 0.46061668 0.2855115 -0.18087323 0.047077224 -0.51199424
theropod -0.18413016 -0.23638032 -0.6362041 0.27152678 0.21745749 -0.30137712 -0.022320403 -0.09821868 -0.76598006 0.70315 0.2919731 -0.49636418 -0.17517218 -0.56649464 0.42663068 0.5550455 -0.40934756 0.7708593 0.8840504 -0.16106945 1.2659769 -0.23781157 -0.034080543 -0.5800862 -0.06851761 0.4265599 -2.045459 0.5476325 0.12468268 -0.6915068 0.13574672 -1.0549154
rare -0.40474364 -0.066210695 -0.2450528 -0.020652814 0.29102564 -0.04674338 0.28627476 -0.20410109 -0.6170651 0.28461498 0.10743747 -0.45698205 0.061795738 -0.37806147 0.5501893 0.72680414 -0.38889185 0.39942053 0.9843428 -0.040664542 0.8829879 -0.28984192 0.032410238 -0.765086 -0.22876081 0.61846954 -1.6677636 0.42783862 0.3573879 -0.22836743 0.06299335 -0.4830362
create -0.4036872 -0.32484955 -0.45644027 -0.28430733 0.5243749 -0.027576344 0.2318092 -0.02552158 -0.6331942 0.5501944 0.3067377 -0.6116802 0.0018707018 -0.6234174 0.5022761 0.52073973 -0.3447272 0.17409155 1.1059984 0.31800544 1.2732086 -0.31771863 -0.23565517 -0.72971237 -0.18303095 0.6407909 -1.7137713 0.40211514 0.6932896 -0.44397473 0.0921068 -0.68017024
ground -0.32864657 -0.22639413 -0.25636107 0.0065752333 0.43615407 -0.05840662 0.19739488 -0.19631857 -0.7188232 0.53730077 0.2178635 -0.5269032 0.0073906723 -0.5672684 0.57067454 0.6188206 -0.3009192 0.5085098 0.9538511 -0.017442474 1.1076432 -0.3656275 -0.14637446 -0.8223889 -0.21105199 0.704591 -1.8560452 0.4508968 0.38079762 -0.4818303 0.055410217 -0.70580745
actually -0.3924703 -0.17507295 0.0073279473 0.02423326 0.39000174 -0.014367762 0.12865694 -0.053668182 -0.7674149 0.5835429 0.1836563 -0.639438 -0.18356942 -0.46756098 0.6531699 0.47971627 -0.0780451 0.45929304 0.7771244 -0.010127525 0.9186207 -0.33052737 -0.21943803 -0.9506138 -0.2834201 0.59328306 -1.7146862 0.44270802 0.4020746 -0.50909 -0.1036869 -0.6188088
